{"layers":[{"out_depth":3,"out_sx":32,"out_sy":32,"layer_type":"input"},{"sx":5,"sy":5,"stride":1,"in_depth":3,"out_depth":16,"out_sx":32,"out_sy":32,"layer_type":"conv","l1_decay_mul":0,"l2_decay_mul":1,"pad":2,"filters":[{"sx":5,"sy":5,"depth":3,"w":{"0":-0.0019269538286340513,"1":0.033445380056148236,"2":0.11938033029666473,"3":0.04191830722267272,"4":0.06756768405255248,"5":-0.061553956331698,"6":-0.1062437426716931,"7":0.0026789649296882706,"8":-0.07648328681690345,"9":0.07865776810475393,"10":0.16886367692064352,"11":0.008074503319090051,"12":0.043317542640348476,"13":0.11425184120911168,"14":-0.009796185314485626,"15":0.05911342745342045,"16":-0.16014353159313016,"17":0.028915683482060948,"18":-0.06282284064816052,"19":0.07369531517115774,"20":-0.15001633283565047,"21":0.17503029349181204,"22":-0.13835390473082942,"23":0.019302384254323696,"24":0.20525330258301852,"25":-0.1734836664699037,"26":-0.08141685194695306,"27":-0.15692047264995213,"28":0.03356910332525186,"29":0.15104066850857278,"30":0.11951816034836332,"31":0.026480406357878707,"32":0.014703575577014152,"33":0.19361686850677057,"34":-0.04955877205022659,"35":0.04900480135022891,"36":-0.05806574884198844,"37":-0.10370895379690073,"38":-0.09128606688678471,"39":-0.007249452543976954,"40":0.022799106853738312,"41":0.06304337097456109,"42":-0.033564542087499746,"43":-0.04933362669246861,"44":0.07140688378348631,"45":0.0350277977320677,"46":-0.14539804561749364,"47":-0.10224663619863199,"48":-0.013652800729714054,"49":0.1336497687417269,"50":0.09602516569486479,"51":0.040152581010275246,"52":-0.024657662294031463,"53":-0.0413346547093828,"54":-0.04104702500944656,"55":-0.014484991098578856,"56":-0.09824193995112011,"57":0.021648819753083203,"58":-0.04366420291353432,"59":-0.3262470859767453,"60":-0.1848641033411821,"61":0.14883536145456794,"62":-0.0593295265536714,"63":0.1072986913852843,"64":-0.11563821705957424,"65":-0.12395970618345914,"66":0.1463536141692489,"67":-0.026000455543255124,"68":0.004298078689493732,"69":0.009564748114818824,"70":-0.024809290178288732,"71":0.0876068997066654,"72":-0.047005109782965,"73":0.04380909568151551,"74":-0.04510153904803469}},{"sx":5,"sy":5,"depth":3,"w":{"0":-0.01557409118680712,"1":-0.12232898051993966,"2":0.02065684059874689,"3":0.03952549757762591,"4":0.033486585731883206,"5":-0.049473087381790584,"6":0.25747103811403027,"7":-0.07388998792264256,"8":-0.20488932048798547,"9":0.1625892278674725,"10":-0.025101759689350286,"11":0.045533507841454955,"12":-0.17560606232125028,"13":-0.02933603128545877,"14":-0.05351580746086017,"15":-0.12313886026249492,"16":-0.012274418662385128,"17":0.08764997654400593,"18":-0.04082823208904179,"19":-0.10655346939144442,"20":0.026344478989051588,"21":-0.01470676120199101,"22":0.055567859857895766,"23":0.10907097350763728,"24":-0.11484241552491613,"25":-0.26185801840225725,"26":-0.1297040011664193,"27":0.04198705480821518,"28":-0.2322891338234644,"29":0.023483685017291665,"30":0.025324329444022686,"31":-0.043863971376918456,"32":-0.13269529869020755,"33":0.06509276295515846,"34":-0.06669796718848703,"35":-0.15569029222979627,"36":0.01428864438873619,"37":-0.05748018045298807,"38":0.17443006150521695,"39":-0.19471134557537628,"40":-0.05890350458477375,"41":0.015751939256037024,"42":-0.015340682101465794,"43":-0.1433512188003597,"44":-0.011958196674887987,"45":0.0450691566349483,"46":-0.263052147256648,"47":-0.053155044955808306,"48":-0.12974913361215942,"49":-0.2619307032196791,"50":0.056199024525372426,"51":-0.02507912194623913,"52":-0.07209666404990832,"53":-0.2360320861415972,"54":0.2540168645653496,"55":0.0426102796249164,"56":-0.23829454101552602,"57":-0.0182905221164166,"58":-0.15251927809506174,"59":-0.002708565238929666,"60":0.07017532515336092,"61":-0.1271882297743132,"62":-0.11282303897432588,"63":0.0006207152667005055,"64":-0.028474240940762396,"65":0.12353035230384501,"66":0.02317820454743754,"67":0.053197004048029864,"68":0.0473434832761749,"69":0.04633389736062598,"70":0.19425402865128247,"71":0.056981457084971904,"72":-0.08657175218642511,"73":-0.026603183063661297,"74":0.16632477089456335}},{"sx":5,"sy":5,"depth":3,"w":{"0":-0.3282904528692552,"1":0.07912104515256052,"2":-0.18901144319640661,"3":0.05361513881135512,"4":-0.01256487852867462,"5":0.04765321903866529,"6":-0.07180839421190725,"7":-0.08301488881273617,"8":-0.13799299257880893,"9":-0.04124968699039372,"10":0.2347332489321639,"11":0.11349789340269045,"12":-0.05187350327499427,"13":0.27970861253828355,"14":0.008267062281358133,"15":-0.12822409897934556,"16":-0.25859422552542805,"17":-0.027863502450628203,"18":-0.1347798715602485,"19":0.1696691223919869,"20":0.029696100164083195,"21":0.15948948191121,"22":0.16663154564494717,"23":-0.11782955093045053,"24":-0.07359930404517784,"25":-0.01747492086036463,"26":-0.06760488084332202,"27":0.05013550859524469,"28":0.022966413705302648,"29":0.03396386570068609,"30":0.1792407089276556,"31":-0.02564304648595132,"32":0.057467062735603515,"33":0.15266759288760495,"34":-0.10821632252153174,"35":0.021677715201151117,"36":-0.0005118336439155109,"37":-0.3542486333803839,"38":-0.040044022930356034,"39":-0.06603886670231311,"40":-0.04603456893935024,"41":-0.03638897098083437,"42":0.17242664122510193,"43":0.10416215385930015,"44":-0.012009630305277555,"45":-0.047984671212032745,"46":-0.20824459968120246,"47":0.14399550482349951,"48":-0.16473315569777303,"49":-0.26672075660954053,"50":-0.001090795953448444,"51":-0.07784790650527827,"52":-0.07802784948581946,"53":-0.04088165565451584,"54":-0.15534916618208164,"55":-0.041009300538111325,"56":0.010260146217029262,"57":0.10069838673752221,"58":-0.004603324485431838,"59":0.05283108471880351,"60":-0.0028109848704301,"61":0.16933713738322922,"62":-0.2714179661402456,"63":-0.14072472479688683,"64":-0.07259414444594005,"65":-0.1843659710396883,"66":0.07935454552423483,"67":0.007903613721381663,"68":0.07831414093447557,"69":0.09340583037712359,"70":0.05957049142384979,"71":0.1284143309346884,"72":0.05090729693889075,"73":0.04016650797140002,"74":0.01789452990723844}},{"sx":5,"sy":5,"depth":3,"w":{"0":0.03290398281890864,"1":0.07604671955037327,"2":0.17192543284167552,"3":0.08685176647779755,"4":0.17981338676914438,"5":-0.14420387620803313,"6":0.007052071090154557,"7":0.05315483847335006,"8":0.01502542407595835,"9":-0.16980215772059648,"10":-0.03948003594963893,"11":0.005944484407639921,"12":-0.09119543333027484,"13":0.151899833674518,"14":0.2023669559606783,"15":-0.17258411252263908,"16":-0.145768563625302,"17":0.12488418344376899,"18":0.023639902726747996,"19":-0.005369375469363336,"20":0.06594191553115637,"21":-0.040951098902344225,"22":0.21573245702488647,"23":-0.07982224570762868,"24":0.03924778030934932,"25":-0.03756456895406394,"26":-0.06417648553332093,"27":-0.008831078271061842,"28":-0.07781240126689876,"29":-0.09528385648582927,"30":-0.20704129008866137,"31":-0.1568446175016765,"32":0.1471229235006047,"33":-0.06065183873603278,"34":-0.028266559469434745,"35":-0.009331754333339843,"36":-0.26210812309959075,"37":0.01701187020276097,"38":-0.3439949374455151,"39":0.20138160377551897,"40":0.24513730949973223,"41":0.12734921546657527,"42":0.14861592132174015,"43":-0.04641216164037834,"44":0.12536505746772705,"45":-0.08969174464035654,"46":0.1995588197485391,"47":-0.1658532110218385,"48":0.060526158201698856,"49":0.005126251330702003,"50":-0.06165277628465841,"51":-0.024326881997019486,"52":0.08568792122161288,"53":0.022832497075414623,"54":0.01573559106278489,"55":0.19420393426613566,"56":-0.2529792193192968,"57":0.05438271072538013,"58":-0.21895886853888358,"59":-0.16982430780777272,"60":0.05323823374260406,"61":0.18744459609286554,"62":0.12310451195865961,"63":0.004617031384402112,"64":0.017978510695743764,"65":0.08299508381651315,"66":-0.1731531355695197,"67":-0.2680513924143465,"68":0.12475303276851765,"69":0.2483433825274699,"70":-0.034554429481897415,"71":0.01628778662766913,"72":0.08681974764464431,"73":0.03194926787997266,"74":-0.09289572059622785}},{"sx":5,"sy":5,"depth":3,"w":{"0":0.09315705268939853,"1":0.20126366854951194,"2":-0.2828582110680122,"3":-0.195068933979119,"4":0.006395010290447112,"5":0.1985818509578519,"6":0.18610619008849918,"7":-0.12374868097348006,"8":-0.03485625502739209,"9":0.12942745968740588,"10":0.03611562646307298,"11":0.28689646290916415,"12":-0.022114203511047675,"13":0.13173914574157583,"14":0.03556591606244242,"15":0.17917500824610544,"16":0.051950346022917114,"17":-0.02769641387189616,"18":0.0024067116204009816,"19":-0.08212289051957372,"20":0.039942340991793196,"21":-0.15695991747132101,"22":-0.05677227221228254,"23":0.06388431274114173,"24":-0.1276042619076451,"25":0.0723838913393911,"26":-0.1370927498018994,"27":-0.15981748335340265,"28":0.019369002643954688,"29":-0.002102149890398789,"30":0.08047728563920259,"31":0.30496427093991246,"32":-0.11101264094096443,"33":-0.138004083802276,"34":-0.021463581678956664,"35":-0.038713559476735375,"36":0.09529462671247474,"37":0.07631280679810738,"38":0.11946163042631688,"39":0.30814089139967715,"40":0.007019655982521434,"41":0.049224467079349785,"42":0.21018587360846158,"43":-0.17151021071473393,"44":0.10392475055780259,"45":-0.061968022168599514,"46":0.2636342073283053,"47":-0.16985006862253182,"48":0.07285527689111902,"49":0.05376760367479857,"50":0.13582182390276332,"51":0.15466353230877222,"52":0.2250513213534721,"53":0.037472134052753424,"54":0.017115865745765863,"55":-0.011449002310208728,"56":-0.24416259277902727,"57":-0.041020100005559064,"58":-0.02938449999662525,"59":-0.008585655420870817,"60":-0.058823480160092416,"61":-0.06198989881299136,"62":0.014274603443709859,"63":-0.21520340139536934,"64":-0.11840105812705146,"65":0.04948591122910863,"66":0.033104087202605235,"67":0.12533531694134295,"68":0.12717242208373827,"69":0.12877211590995455,"70":-0.047137331562194025,"71":0.20395630412915225,"72":-0.010153265499071123,"73":0.05347292318254081,"74":-0.03597384861893089}},{"sx":5,"sy":5,"depth":3,"w":{"0":-0.0005390692604107569,"1":0.14119211890098832,"2":-0.2578749743870199,"3":-0.103578594663841,"4":0.058810408055580105,"5":0.1211395375540705,"6":0.1480100570774087,"7":0.008983585562324203,"8":0.12089284397100454,"9":0.04748757666823452,"10":0.18263380578655913,"11":-0.11726957786447374,"12":-0.20355273266638743,"13":-0.2754723626601988,"14":-0.1513848184304922,"15":0.06701342859254117,"16":-0.046318000245275055,"17":0.17546946518449985,"18":0.1280012894045011,"19":0.039862826189185074,"20":0.012720922398568773,"21":-0.15404980810166058,"22":0.06292190253659129,"23":-0.018711612588750558,"24":-0.117845409999916,"25":-0.03526628891535121,"26":-0.07367566036439996,"27":0.042447659316092144,"28":-0.1273119876577252,"29":-0.0542244262233563,"30":-0.10327863011007894,"31":0.05389343811644992,"32":-0.15179853941529395,"33":0.1417798742201056,"34":0.18747613164262664,"35":-0.07624011425646102,"36":0.08119303786203938,"37":-0.3840105367370702,"38":0.08338545636544348,"39":0.12140890710740708,"40":-0.0031725773627310004,"41":-0.17305797716931542,"42":-0.20991805033005234,"43":-0.050121443760730536,"44":-0.014970833062137496,"45":-0.07219711303789055,"46":-0.13725141018859782,"47":0.15660228646653962,"48":-0.039814009474845,"49":0.20514405640884717,"50":-0.002315801836836447,"51":-0.12398089321649997,"52":-0.18720734876293144,"53":0.06417239676786773,"54":-0.12289853465628711,"55":0.15260399828226634,"56":0.13496461503202564,"57":0.006760346044245512,"58":-0.10026645873190375,"59":0.007150867760917807,"60":0.1552630138498992,"61":-0.17961277490971064,"62":-0.15880858622358918,"63":-0.0866729244997961,"64":-0.09983247827831594,"65":0.0712619242559312,"66":0.0006159732249691181,"67":-0.09049379948162885,"68":0.09157087633035418,"69":-0.02977807762771692,"70":-0.13646197694258075,"71":-0.2962091928521831,"72":0.13261191316138649,"73":0.21790919159259248,"74":0.042322832680557386}},{"sx":5,"sy":5,"depth":3,"w":{"0":-0.055077418104878845,"1":-0.1376902506060825,"2":0.115686488882322,"3":-0.08277183109941422,"4":-0.01550905840599391,"5":0.0021305862359158045,"6":-0.2064261018905446,"7":-0.07204728691601694,"8":0.1514995715738352,"9":-0.04844515291063298,"10":-0.027771918622755305,"11":-0.049504532329050784,"12":-0.1028019606735083,"13":0.1601098762863615,"14":-0.03900113474838765,"15":-0.13360141034688133,"16":-0.17922057947296494,"17":0.08430863190199671,"18":-0.04382812057413219,"19":0.14800230094695535,"20":-0.05342440232881159,"21":-0.13384195439222762,"22":0.21214063704010586,"23":-0.026075003818750497,"24":0.014141310291119575,"25":-0.03879698953399116,"26":0.08361118536589443,"27":-0.03866731328074555,"28":0.13733400121885253,"29":0.17940928637884376,"30":0.022392872704305244,"31":-0.024161205309059214,"32":-0.023576421296153765,"33":-0.018167654129764534,"34":-0.10110391828467777,"35":-0.1354504332262473,"36":0.10966056899247109,"37":-0.0038672081442163732,"38":-0.0006002126445890022,"39":0.18762906019954673,"40":-0.08370133447302802,"41":-0.1504480568716322,"42":0.07629213243855225,"43":0.09499529309793645,"44":-0.1297245149411636,"45":0.06026810646249976,"46":0.0366633215979365,"47":0.033383303591679396,"48":0.0034033672324459223,"49":0.18873107015664484,"50":0.038433689308103244,"51":0.11172541380362941,"52":0.15619596553304332,"53":0.01587241964714493,"54":-0.160591175409224,"55":-0.02895598968520678,"56":0.01966342230915445,"57":-0.2140381102914014,"58":-0.0807411329314649,"59":-0.028173277642697146,"60":-0.2209545938555554,"61":-0.13858152252305075,"62":-0.006391419788598704,"63":-0.13975211733428286,"64":0.09447178662921846,"65":0.07300936518189272,"66":-0.13435552204473963,"67":-0.24205097130005676,"68":0.2155549777723989,"69":0.027894992189514807,"70":0.03012786978409762,"71":-0.1906662656972034,"72":-0.04552340598672662,"73":-0.025460821147708902,"74":-0.2142575151197746}},{"sx":5,"sy":5,"depth":3,"w":{"0":-0.08462371077232927,"1":-0.030748553034781422,"2":-0.0923770873377324,"3":0.15531570490638968,"4":0.06201252751116661,"5":-0.01120684322174531,"6":0.06269653169005193,"7":-0.19406915097184999,"8":-0.002174936913817024,"9":-0.17816199872716204,"10":-0.06766039728698682,"11":0.03389124255282044,"12":0.17240048189318624,"13":-0.15811624372623778,"14":0.11091797794545194,"15":-0.11762394121393617,"16":0.0550865474024722,"17":0.10788231395184283,"18":-0.07194585942598918,"19":-0.01753801342641094,"20":-0.05586609946486854,"21":0.19609853826272633,"22":0.024270686671598624,"23":0.19440474406301853,"24":0.10729891932379118,"25":-0.0927133180478998,"26":0.021484914639169173,"27":0.09397513610333809,"28":0.19922717983057056,"29":-0.12059260937591094,"30":0.08186456958907977,"31":-0.12085987013531768,"32":0.05191663338082546,"33":-0.1451293506668972,"34":0.057093014950426665,"35":0.1801441869591414,"36":-0.08817206283290961,"37":0.086622395624321,"38":0.0828856292445263,"39":0.11343334802267512,"40":0.12168760308473708,"41":-0.13887527649750156,"42":-0.14808755983049499,"43":0.22075270959021326,"44":0.07014712634534034,"45":-0.21683364400391367,"46":-0.09179762973837642,"47":-0.025269805527437725,"48":0.0752957498720614,"49":-0.16037629796557218,"50":-0.16422276286384066,"51":0.0664237781729634,"52":0.12036558322063304,"53":0.05515685468930259,"54":0.07654582849739935,"55":0.1650055653131053,"56":-0.050611814665461545,"57":0.03510803441706524,"58":-0.13455289301144957,"59":-0.1063725436585981,"60":-0.05684328297099168,"61":0.11899920275894833,"62":-0.048117525962783625,"63":0.04120696564464225,"64":0.0058629893896774265,"65":-0.0791503013311884,"66":-0.07130423318791973,"67":-0.10694601357670253,"68":-0.038890879158663044,"69":0.023430020660190093,"70":0.08769126637156685,"71":0.19028961793016835,"72":0.052141204736019166,"73":0.04458867429742301,"74":0.1383601140599443}},{"sx":5,"sy":5,"depth":3,"w":{"0":-0.002275578634441998,"1":-0.005989954759051385,"2":-0.23108638446123675,"3":0.20502437142622368,"4":0.09791486786130654,"5":-0.0816843884001767,"6":0.038652496565065426,"7":0.10309506246999581,"8":0.10747561213630351,"9":-0.09494725124571755,"10":0.045955889959374496,"11":-0.07325028265490313,"12":0.011753834912730193,"13":-0.03750906944419407,"14":-0.013672977383430936,"15":0.08560573749820474,"16":-0.055381055782349115,"17":-0.058458127352478496,"18":0.09783472081671794,"19":-0.01847970683693126,"20":-0.019279693724391703,"21":-0.0011866668567923936,"22":0.0333792588995767,"23":-0.2668233756558266,"24":-0.13950090065474344,"25":-0.020909919730264643,"26":-0.010603498394667274,"27":-0.03207199552072969,"28":0.12353032069292164,"29":-0.057594984697238186,"30":-0.017878872303046793,"31":-0.09961518870890974,"32":-0.1512398423886864,"33":0.015020910083130942,"34":-0.0910667388709548,"35":0.07542181546822982,"36":-0.24512637539625115,"37":-0.11810726250606417,"38":-0.14208373120528545,"39":-0.043333871042147164,"40":-0.09195986169122848,"41":-0.10939959713157557,"42":0.03208701807381767,"43":0.08787879427924884,"44":-0.10048623804420027,"45":-0.025096978604878604,"46":-0.13658991908487134,"47":-0.0015629394223291907,"48":0.0513042539694413,"49":0.036893542689473036,"50":-0.01577276901582073,"51":-0.057448631565344674,"52":-0.1797559960467754,"53":-0.05609377858584416,"54":-0.07435682066327293,"55":-0.006010874692396993,"56":0.04391138052506541,"57":0.07742387680821466,"58":-0.04516528389476898,"59":0.03876226280642316,"60":-0.09343079853119282,"61":0.028664873700946607,"62":-0.02397325801094054,"63":-0.06923750788212539,"64":0.19354137758134812,"65":0.21560996952719585,"66":0.06264471920931966,"67":-0.0727635633106793,"68":0.013945895139729336,"69":0.05398509685426543,"70":-0.03026935339782412,"71":-0.05740430972985133,"72":0.06767750531817503,"73":-0.0013353217112098508,"74":-0.060055188611915715}},{"sx":5,"sy":5,"depth":3,"w":{"0":0.011800749767649488,"1":0.20476522368784156,"2":-0.16458229778884767,"3":0.22645815400340794,"4":-0.08474082352367367,"5":0.04342662668018476,"6":-0.03687879768487621,"7":0.13979714946666688,"8":0.17961708756268158,"9":0.03251780531868873,"10":0.12259606014810198,"11":-0.010661870841833277,"12":0.21448945187426444,"13":-0.154550451209638,"14":-0.10722397558682924,"15":0.00507508231836122,"16":-0.04547790620154803,"17":-0.019608428874898876,"18":-0.11315380869873132,"19":0.01661058463628186,"20":-0.11922776313942138,"21":0.0194353332693762,"22":-0.1244986790261854,"23":-0.035426948955885926,"24":0.03931485518038413,"25":-0.11976407090250328,"26":0.08369169892126702,"27":-0.21033729959663292,"28":0.02836729131221499,"29":-0.13208068584616556,"30":0.03204881112188892,"31":0.02654205055790776,"32":0.07293095285597448,"33":0.042181099751160085,"34":-0.07604523256948685,"35":0.0070545837568458695,"36":-0.06425876691631137,"37":0.1288311739854549,"38":0.07104058525543475,"39":0.09868384951555575,"40":0.059223830438455,"41":0.08737514985564332,"42":-0.10032404675156945,"43":0.12101838057108623,"44":-0.07459124936986367,"45":0.04971347902968366,"46":0.08621986150890681,"47":-0.020922336048045807,"48":0.11644909530922823,"49":0.0108384071905745,"50":0.09776517418969427,"51":-0.16798497024592565,"52":-0.1789401613712099,"53":0.25035528734535767,"54":-0.1040319380781955,"55":-0.3085080138437885,"56":-0.12374163771697036,"57":-0.08540245251636792,"58":0.09814359660308421,"59":-0.1274217712776456,"60":-0.009674879725690517,"61":0.010066314830998782,"62":0.017839632037756528,"63":-0.01414637389981876,"64":0.017947111062182663,"65":-0.06350196740979733,"66":0.1283507722960259,"67":-0.11045111013974852,"68":-0.0770492028696754,"69":-0.21831615257133127,"70":-0.07804547794576183,"71":0.058675115294993335,"72":0.018675133335704197,"73":-0.022162934760213426,"74":0.07277477022367726}},{"sx":5,"sy":5,"depth":3,"w":{"0":-0.06605733420250254,"1":-0.10174271309706182,"2":0.057469110466285625,"3":0.026465318000674944,"4":-0.04758546595776094,"5":-0.10055127561667926,"6":0.13119562064932636,"7":0.07228980798180694,"8":-0.08804507572178621,"9":0.11635377790306146,"10":-0.15092244231745186,"11":-0.05867226582800115,"12":-0.017827204333961108,"13":0.06471354474510072,"14":0.18016540750879967,"15":0.09659522319152583,"16":-0.04588235108741682,"17":-0.11956154973687827,"18":-0.23218966691884435,"19":0.25932685520167437,"20":-0.058407255756240874,"21":0.04359600242525037,"22":0.18964734336499012,"23":0.020444325138854195,"24":0.034263881702945094,"25":0.04902968074830818,"26":-0.09598582597828176,"27":0.012174146334206716,"28":0.13036767632094495,"29":-0.13564796439336824,"30":-0.10149337901774136,"31":-0.005050807883987335,"32":0.13756337608554828,"33":0.1406606582656802,"34":-0.1580679320833169,"35":-0.06649855789059327,"36":0.05469489900986077,"37":0.16002579861376362,"38":-0.04080369817156299,"39":0.1324769129827718,"40":0.013822471007127506,"41":0.014019135933037536,"42":-0.2339588100692827,"43":-0.23887366763864357,"44":0.23789707182855174,"45":0.12509180486776844,"46":-0.10652453349078204,"47":0.1626674784525868,"48":0.11662864329988346,"49":0.11345666622504602,"50":-0.12720268513498428,"51":0.14298256498637563,"52":0.008849735750769125,"53":-0.0462451202999257,"54":-0.19140585311615435,"55":0.06092923023979399,"56":0.055213231479366486,"57":0.06069120625325123,"58":0.11588485886394902,"59":0.01795973257512056,"60":-0.08894185930263454,"61":-0.11264883041169962,"62":-0.01046068983454643,"63":-0.16942387779584564,"64":0.07893121826660614,"65":0.06314589434331708,"66":-0.14648148573600928,"67":0.14687614833603901,"68":0.17623550087419146,"69":-0.14533495435022517,"70":0.011836354407762654,"71":0.21111269427073295,"72":-0.05098185787646189,"73":0.0767365298004385,"74":0.11638030821069846}},{"sx":5,"sy":5,"depth":3,"w":{"0":-0.020109411634298916,"1":-0.0029115043519732193,"2":0.007653467679374507,"3":-0.05950582906159355,"4":0.05637674914287752,"5":0.026183108292825004,"6":0.024132368736926885,"7":0.05685447062778409,"8":0.10270648472743131,"9":0.0016065921982634922,"10":-0.11763456209305467,"11":0.065234141729153,"12":-0.025099383257597748,"13":-0.0383519069978275,"14":-0.044549663893882645,"15":-0.12166134502374852,"16":-0.012238217358962609,"17":-0.007496550999080184,"18":0.00005628492366093147,"19":0.015960723654456704,"20":0.17595583154451613,"21":0.051456563188566486,"22":0.08702336402783846,"23":-0.04757731373648317,"24":0.056064744151430264,"25":-0.001023237563668573,"26":-0.15700475301635514,"27":0.2399277266484382,"28":0.23065106888130005,"29":0.18122706710815617,"30":0.03494541759229594,"31":-0.07135044118651654,"32":-0.06557073582105753,"33":-0.029482498153384176,"34":-0.03853455477490572,"35":0.02163890567906399,"36":-0.15683832172088044,"37":0.10269558905902675,"38":-0.08951711989927694,"39":-0.09916645675176826,"40":0.09610006407954556,"41":-0.03402218723474423,"42":0.05812406605924973,"43":-0.015069297010112873,"44":0.16901236707632444,"45":0.02132272535967965,"46":-0.19557312128161136,"47":-0.06381897648730551,"48":0.07917111110308833,"49":-0.08780805019785173,"50":-0.06244684466283291,"51":-0.08191514316225551,"52":0.10047862854758842,"53":-0.030202857877722537,"54":0.01163723885554145,"55":0.1676174531348042,"56":-0.2720558621988242,"57":0.2552476724613169,"58":-0.009679472474533006,"59":-0.0638532429558503,"60":0.011630528246742168,"61":-0.458206353000405,"62":-0.03495308551002078,"63":0.13609946951077243,"64":-0.0931632411067511,"65":0.11209339629583646,"66":0.15867093315402214,"67":-0.06921492699211429,"68":-0.11078487106113208,"69":-0.1980275748275104,"70":-0.1489173386154856,"71":0.16828497592602687,"72":0.13120794921132253,"73":-0.07543988649650285,"74":-0.0009948932964315821}},{"sx":5,"sy":5,"depth":3,"w":{"0":-0.13859783534251965,"1":-0.13788943312719332,"2":-0.10358842513502757,"3":-0.07839066706264357,"4":0.23729461426342008,"5":0.04109390946016993,"6":-0.03904343241671973,"7":-0.19982499036508264,"8":0.11355491760667033,"9":0.144723309996958,"10":0.04869310908403188,"11":-0.022464005479593173,"12":0.008507374220906583,"13":-0.09701493101250347,"14":0.2281197922309985,"15":0.023268708188396214,"16":0.19925688221898757,"17":0.09012186208612395,"18":0.02727567565856583,"19":-0.04582646488703692,"20":0.1346872643607706,"21":0.13952410163501922,"22":0.1350383077836254,"23":-0.06664839353027131,"24":-0.07762783497317527,"25":0.09876789052952986,"26":-0.08457501532406529,"27":0.08868985394830566,"28":-0.13437092467860046,"29":-0.07195051069731648,"30":-0.045575935113864166,"31":0.17781311734433272,"32":-0.014050554705304159,"33":0.07694774490210889,"34":0.01820863837205935,"35":0.04955546135467193,"36":0.043579491611184296,"37":-0.12364484753203041,"38":-0.24647488531837794,"39":0.037594424489328385,"40":-0.13323119858680946,"41":-0.020791905536142633,"42":-0.13296171388230343,"43":-0.10063364445618572,"44":-0.18919741441199645,"45":0.29677792760037036,"46":-0.2349545900940936,"47":-0.07229025058911825,"48":0.01709601624433499,"49":-0.04101484653162655,"50":0.11846580203177738,"51":0.013580504405120103,"52":-0.11586954363436407,"53":0.028666083431989245,"54":0.06524299165279016,"55":-0.127023625847599,"56":0.021247921667201367,"57":0.023089756943841164,"58":0.1681512050254068,"59":-0.05395055001321115,"60":-0.06456415332785513,"61":0.14144068014400726,"62":-0.04552355466214672,"63":-0.06160146464208321,"64":0.35136836500245744,"65":-0.03854913340846115,"66":0.20519695098761562,"67":0.26175927960317275,"68":0.0390962742784141,"69":0.07678320005344343,"70":-0.1056926381413628,"71":0.007958592123018192,"72":0.007102225432470697,"73":-0.05305234761907991,"74":0.0538873806839171}},{"sx":5,"sy":5,"depth":3,"w":{"0":-0.0122844352674884,"1":-0.07204435858276634,"2":-0.09190796169092638,"3":0.0787924438005195,"4":-0.1203785993647965,"5":-0.02132231140879596,"6":0.09715762867315542,"7":-0.033288802138563715,"8":0.031427025855246475,"9":0.07235201769689162,"10":0.056409842920903897,"11":0.14448211285573817,"12":-0.07577837907985252,"13":0.014487343540868234,"14":-0.10677122881612199,"15":-0.04131014009970548,"16":-0.15901578993619017,"17":-0.07484229007553612,"18":0.04336044860173889,"19":-0.18042087932641226,"20":-0.12881250464265273,"21":-0.09395652852896959,"22":0.09579455859809967,"23":0.025121801482429224,"24":-0.27431340282459415,"25":-0.015841922960004206,"26":0.07425572904426597,"27":-0.07602615124536423,"28":-0.11023086225792537,"29":0.22965755974953017,"30":-0.10584298467252169,"31":0.05545896566451947,"32":0.04499770475281975,"33":0.003854747038991833,"34":-0.08082238636559694,"35":-0.1281610388751663,"36":0.1838558884313661,"37":0.26630311791631867,"38":-0.16887991054759974,"39":-0.1332643061584447,"40":-0.06973457512689116,"41":-0.06660340713447627,"42":-0.009198599154994314,"43":-0.1348478818459763,"44":-0.08625487181383684,"45":0.275168336448393,"46":-0.05612381015628276,"47":0.002794330866674579,"48":0.08724612560418854,"49":0.07744675837801664,"50":-0.04117313562139468,"51":-0.11244013167071114,"52":-0.10411773795257863,"53":-0.04233952277116796,"54":-0.1521573139824243,"55":0.011875389827563556,"56":-0.02919361511457501,"57":-0.14262861493096882,"58":0.016438188589583434,"59":0.02535972427795509,"60":-0.03559734184968041,"61":0.024863799520470728,"62":-0.20617941888320748,"63":-0.10576802859007144,"64":0.12768478146239012,"65":0.01576875972316826,"66":-0.1289549960169393,"67":-0.11111360910471536,"68":-0.05748811253521719,"69":-0.0006683893490214466,"70":-0.1129082970017856,"71":0.009771140423437765,"72":-0.044093378934972824,"73":0.10014059880714865,"74":0.001994430989614204}},{"sx":5,"sy":5,"depth":3,"w":{"0":0.06904248469113321,"1":0.0964622939152666,"2":-0.242211914673253,"3":0.08923004922109352,"4":0.041989667825108004,"5":-0.03480597786361535,"6":0.15077429804399725,"7":-0.10101789882152716,"8":-0.10338065444806087,"9":0.14865649115330493,"10":0.032713615469125885,"11":-0.030027086139081036,"12":-0.18335334520841098,"13":-0.1300789875059327,"14":0.09074691290222543,"15":-0.14895672869660845,"16":-0.015835397718488745,"17":-0.02872663758854667,"18":-0.19800815352754683,"19":0.04925940237075415,"20":-0.18049460430678824,"21":0.021707954791305883,"22":0.09183165276516314,"23":-0.021224290717199217,"24":-0.04618535834544682,"25":0.019820385692073297,"26":-0.14268620157380257,"27":0.04583335184114767,"28":-0.022162251401791944,"29":-0.02866766850364124,"30":0.03278883145121846,"31":0.002705606644729654,"32":0.10018197983307776,"33":0.18551603163420763,"34":-0.003271942458803326,"35":-0.2177218639259192,"36":-0.10989104965324836,"37":0.06294184695792475,"38":-0.12793275811747182,"39":-0.26279362946882173,"40":0.089983959289055,"41":0.02270096232061034,"42":-0.04032124075563991,"43":0.021306949982373112,"44":0.14088459080218302,"45":-0.11134723021846989,"46":0.16886387230714625,"47":0.0005102453413465504,"48":-0.028197321733577082,"49":0.10772814246401327,"50":0.05260373947246019,"51":-0.05241643978464288,"52":0.08066687333307745,"53":-0.024410890199930653,"54":0.19539080575003548,"55":0.1764030889312627,"56":0.024784905103106207,"57":0.084164833579968,"58":0.021087033742123402,"59":-0.05775239997186009,"60":-0.08265371156260354,"61":0.1659975061294152,"62":-0.019733199195638224,"63":-0.048470892226336916,"64":-0.04796844275611248,"65":-0.04627909970506444,"66":-0.07999842782459302,"67":0.045366927641400635,"68":-0.1881006629652776,"69":0.004865205972482686,"70":0.03241919787833825,"71":-0.06570387718686332,"72":-0.029049190180674263,"73":-0.041714147699322725,"74":-0.15787503541476794}},{"sx":5,"sy":5,"depth":3,"w":{"0":0.0550470135904274,"1":0.10285768913635104,"2":-0.011090299250286774,"3":0.09137087532185541,"4":-0.08731033627910972,"5":-0.2035437232107888,"6":-0.05372887946215981,"7":0.12326168782815712,"8":0.12794054948112213,"9":-0.0639018273148602,"10":-0.13677916218422662,"11":0.022183986974631646,"12":0.01081974976668002,"13":-0.021138598822464817,"14":0.06812080432194127,"15":0.057667311451988675,"16":-0.2860572318073728,"17":-0.07430505943213754,"18":-0.23326765928401805,"19":0.038719842725990224,"20":-0.09749487187113492,"21":-0.23103999939046035,"22":0.23900068370925193,"23":-0.05018444217974799,"24":0.07521692087751702,"25":-0.06698758829258897,"26":0.06307176461338834,"27":-0.09665464394365747,"28":0.18847109601750694,"29":-0.10503463368742089,"30":-0.011019556245047983,"31":0.11549772620747811,"32":-0.05143775172996651,"33":0.0807428493430663,"34":0.02281205333361863,"35":0.07203606772430088,"36":0.34945905582890247,"37":-0.1002515892822738,"38":0.14284722059146768,"39":0.29539301607582624,"40":0.08847175242107688,"41":-0.010681929813780843,"42":-0.1655940885993907,"43":-0.019597490819174744,"44":-0.12958830093106818,"45":-0.14736594098804942,"46":0.2769675801317526,"47":0.08572888968486586,"48":-0.01963010620278384,"49":0.04887183245307028,"50":0.04970209215227608,"51":0.008879506430676774,"52":0.09238377584216562,"53":-0.029212894986796394,"54":0.2035814568389014,"55":-0.08212434165212439,"56":0.2021094422652441,"57":-0.049229961165184646,"58":0.01670565859892905,"59":0.0028743471846263456,"60":-0.0016370261756564382,"61":0.15318693367557853,"62":0.04562146766063808,"63":0.21728572914341393,"64":0.18838532668012692,"65":0.0687994170065041,"66":0.12077049444223967,"67":0.26029717623858023,"68":-0.031006017499371177,"69":0.01553140142381931,"70":0.037125858978980686,"71":-0.02427483191815954,"72":-0.04601431712409335,"73":-0.0025200249029420276,"74":0.03509529998481474}}],"biases":{"sx":1,"sy":1,"depth":16,"w":{"0":-0.023588579432135548,"1":0.4150462628994807,"2":-0.19800770504762644,"3":0.36045823610634403,"4":-0.20256358564606722,"5":-0.022914190105410872,"6":0.039419070848504434,"7":0.05696463474446414,"8":-0.2611852929631123,"9":0.0012438030163245961,"10":0.3852263554596436,"11":0.09443604394674607,"12":0.14146517180725793,"13":0.10880955619281675,"14":0.35993958423972144,"15":0.027910020401336052}}},{"out_depth":16,"out_sx":32,"out_sy":32,"layer_type":"relu"},{"sx":2,"sy":2,"stride":2,"in_depth":16,"out_depth":16,"out_sx":16,"out_sy":16,"layer_type":"pool","pad":0},{"sx":5,"sy":5,"stride":1,"in_depth":16,"out_depth":20,"out_sx":16,"out_sy":16,"layer_type":"conv","l1_decay_mul":0,"l2_decay_mul":1,"pad":2,"filters":[{"sx":5,"sy":5,"depth":16,"w":{"0":0.034754803674365994,"1":0.04505993736691816,"2":0.018919708964238325,"3":-0.010876732969498829,"4":-0.03488949377443261,"5":-0.005641942151671538,"6":0.03373684791201148,"7":-0.07342625927132167,"8":0.13087277681060866,"9":-0.03841109784854603,"10":-0.018971507049297304,"11":0.024182659416261118,"12":-0.055668753268546235,"13":0.05879602506092946,"14":0.024678242993308615,"15":-0.10559055093182246,"16":0.01821987817662353,"17":-0.08343259160335414,"18":-0.08876582813690469,"19":-0.07032974778283509,"20":0.03612928753221177,"21":-0.02930384606765179,"22":-0.005587551345234186,"23":0.06803739921186118,"24":0.04413852402040556,"25":-0.07125289530293859,"26":-0.056436797908006986,"27":-0.02698255279901172,"28":0.007067606242567196,"29":-0.06898747464206512,"30":-0.07407243362362113,"31":-0.01425068252683719,"32":0.016879491433010384,"33":0.00259798514660525,"34":-0.02732523078574729,"35":-0.05334818971025502,"36":0.07375944403307591,"37":0.12261728218235868,"38":0.02473116084750016,"39":0.08194071486411852,"40":0.017085837093154106,"41":-0.009164451391635709,"42":0.032984210203965594,"43":0.07133972735545387,"44":0.07469228084668761,"45":0.08069667398053249,"46":0.04255363764942973,"47":0.02332080263828395,"48":0.0124185068612355,"49":0.008306035307222473,"50":-0.019810315937336627,"51":-0.03958669154265399,"52":-0.027917458385430492,"53":0.049645492990051936,"54":-0.1114721760879682,"55":0.0034257578930658107,"56":0.07187551865608881,"57":0.08485002425274756,"58":0.09396288043026524,"59":0.05348065372382825,"60":0.011654882867374554,"61":0.08311544664023382,"62":-0.015997620183944593,"63":0.04248384458804275,"64":0.051993038533254245,"65":0.009077657840560721,"66":0.002070193746122295,"67":-0.08611383876830032,"68":-0.04636993427197568,"69":-0.04854911960702746,"70":-0.0361652655747496,"71":-0.044127656532230206,"72":-0.0065103414014094346,"73":-0.027846392718705423,"74":0.0526984390430108,"75":0.03048997676148656,"76":-0.02909487723316585,"77":0.006025821515621139,"78":0.08317976542829418,"79":0.016571186714339062,"80":-0.06837811155797892,"81":-0.02133940080853859,"82":0.03430827724129801,"83":-0.01509813707150171,"84":-0.029719547453398824,"85":-0.01632955147206123,"86":-0.01649188690485879,"87":0.09473054261290623,"88":0.03156160381856695,"89":-0.06458659256416668,"90":0.05823573165415903,"91":0.08677809090392087,"92":-0.06000871041475181,"93":0.010302410545181644,"94":-0.024805160224453247,"95":-0.11697305126638693,"96":0.023643624236118328,"97":0.0004326831900447048,"98":-0.005081512668704993,"99":-0.021906520294978648,"100":-0.023789836600932708,"101":-0.0029005547463434624,"102":-0.006279564818759788,"103":0.07501307624438536,"104":-0.04098691352168463,"105":0.007171546433634655,"106":-0.04196575087087119,"107":-0.0237049692282626,"108":-0.05166797691541903,"109":0.004565612085158191,"110":-0.06516665522746025,"111":0.048632555573843245,"112":-0.006365276006335828,"113":0.04212233763935877,"114":-0.03417274478614639,"115":-0.045041589963069964,"116":-0.00041675772845083033,"117":-0.024057618669907438,"118":0.029915064390854517,"119":0.03761558499629593,"120":-0.11281995603589341,"121":-0.04642382497372412,"122":-0.04366624096899211,"123":0.021620996259917893,"124":-0.020115542842542043,"125":-0.014213079193123954,"126":-0.013898724602974557,"127":0.023945462489029238,"128":-0.07886663654599742,"129":-0.052923719956976666,"130":-0.017524524667002727,"131":0.017652334773419678,"132":-0.05849719522122957,"133":0.026501854837226925,"134":-0.05955163168466826,"135":0.021148865465451503,"136":-0.05698378497676357,"137":0.04420653120338677,"138":-0.0665644481943064,"139":0.10047873346767548,"140":0.05620618218377779,"141":0.004220133849135847,"142":-0.008178643391424963,"143":0.06726082505596506,"144":0.08332391840969022,"145":-0.016022489391255293,"146":-0.030079115826948537,"147":-0.05530099865402706,"148":0.007162141267016859,"149":0.04222221307674205,"150":-0.08115538792182006,"151":0.07054314054441609,"152":-0.10556577101734166,"153":-0.050297434081385935,"154":0.04270654805524849,"155":0.1516571176132783,"156":-0.03955005552862637,"157":0.029925465286229178,"158":-0.036389698236043926,"159":-0.10181981543335346,"160":-0.07243689181401322,"161":0.04125233522784355,"162":-0.06050694103837451,"163":-0.05112761377777961,"164":-0.009519016048554775,"165":0.04304206396502386,"166":0.024832512859822086,"167":-0.05260419329446537,"168":-0.007550067542753314,"169":0.03327981943696301,"170":-0.07545190378199741,"171":0.023183218677651874,"172":0.03554567583349562,"173":-0.04800555830259227,"174":0.04090310193225518,"175":-0.04361070780010579,"176":0.039772458203674324,"177":-0.10170705510203037,"178":-0.091676583237823,"179":-0.01790743575014804,"180":-0.07836393916591139,"181":-0.06318867478494711,"182":0.09325404459939768,"183":-0.09209992319103472,"184":-0.02379816836409935,"185":-0.0055843037808427295,"186":-0.06961439043775491,"187":-0.08778035663895313,"188":-0.08302586350477661,"189":-0.037243787805081995,"190":0.02184899373958416,"191":-0.025851682066744222,"192":-0.08329188924055031,"193":0.007433916600283566,"194":-0.09760125340618873,"195":-0.07417114916162162,"196":-0.05910187890178067,"197":-0.011011065655971222,"198":-0.1119304488795026,"199":-0.054175579628838635,"200":-0.055728049825548985,"201":-0.04291886320801211,"202":-0.04272179079740492,"203":-0.010408840756302183,"204":-0.036170284392377385,"205":0.08056694140550666,"206":0.06519362770048806,"207":-0.06914394130890637,"208":-0.03382682473741145,"209":-0.07907643310870743,"210":-0.026060091534736488,"211":0.008481703473436958,"212":-0.010191321551553383,"213":0.041420916727853314,"214":0.03841856828151108,"215":0.04521454337401832,"216":0.04570290959708975,"217":-0.037776762308420836,"218":0.010234085508029185,"219":-0.09746270285824285,"220":0.013076302267627302,"221":0.013078955733477816,"222":0.034065211227515255,"223":-0.0015005576926336779,"224":-0.0347358473349636,"225":0.030497221615857904,"226":0.019968734385389597,"227":0.05965799776791188,"228":-0.039143573065158,"229":0.023480978128865414,"230":-0.036531614051619324,"231":0.0367667836700252,"232":0.062363533844999916,"233":0.01732036501572079,"234":-0.023793568900358223,"235":0.04788575883394656,"236":0.03933478341748194,"237":0.061248667031890726,"238":-0.007789337794513076,"239":-0.10389892470421125,"240":0.03175946641361044,"241":-0.031397054948811495,"242":-0.053937188502947646,"243":0.04479900817398697,"244":-0.05341737585690574,"245":-0.01697689426830946,"246":-0.00851706088980439,"247":-0.09783015070082343,"248":-0.03896042057986072,"249":0.015791615768928968,"250":-0.12813918919367562,"251":-0.15501543147044627,"252":-0.0740819424266766,"253":-0.07396034195080639,"254":0.006202954586167029,"255":-0.026537225235535283,"256":-0.01199429700299272,"257":-0.026297244528079577,"258":-0.07836684962863592,"259":0.05091538555218329,"260":0.02272863817009563,"261":0.06872367635523065,"262":-0.07366235823923666,"263":-0.025674682090641353,"264":0.039912458930764574,"265":0.04218467766379313,"266":-0.0337436232065167,"267":0.028519090481372352,"268":-0.07461835036441103,"269":0.05206513925186644,"270":-0.05967526404013037,"271":0.012547191640220926,"272":0.01237428786063096,"273":0.02107548061319,"274":-0.009446785743503598,"275":0.04255900383570718,"276":0.053635225664955585,"277":0.062378948626155235,"278":-0.1054166528028385,"279":0.08082740077574757,"280":-0.06326147374952013,"281":0.07709649864068885,"282":-0.05012539031435717,"283":-0.03675609406183293,"284":0.02765025235957595,"285":-0.005563702993985462,"286":-0.006230547903915006,"287":-0.0597008979152413,"288":0.02312109849594949,"289":-0.030116465755789065,"290":-0.013045667655389913,"291":0.003428131305706891,"292":0.01646159889019071,"293":-0.026036797411470223,"294":0.011669762832103794,"295":0.03276718446120638,"296":-0.037068349879268846,"297":-0.10106321680624959,"298":0.028680588027631314,"299":-0.040748595055737316,"300":0.033375479871755834,"301":0.046771062474739625,"302":0.020929235740688813,"303":0.026683625367190867,"304":0.0516238124145059,"305":0.04715091937386093,"306":0.06463054920066472,"307":-0.02979411394531391,"308":-0.06852485109966772,"309":0.030063249709517213,"310":0.08828134455162201,"311":0.04027463626652969,"312":0.0601615656596729,"313":0.017399988525919913,"314":-0.027417215287360373,"315":-0.012565520208965234,"316":0.07176281009804514,"317":-0.07080666797502044,"318":0.08276909776998603,"319":0.008711439355910547,"320":-0.01437607834169605,"321":-0.10594406462327138,"322":0.02396093664293872,"323":-0.08030326643444609,"324":-0.022279227386460862,"325":0.00007828908376879548,"326":-0.014710668843321287,"327":0.00021839599959543832,"328":0.0000031384245341470934,"329":-0.08296606878496135,"330":-0.12823237508290825,"331":-0.06390987704624103,"332":0.012477806169397029,"333":-0.02856937384679395,"334":0.061986584356999073,"335":-0.07753930179434623,"336":-0.14160264399231848,"337":0.0077538701190787125,"338":-0.05919655982484661,"339":-0.06953827203630206,"340":-0.02934770770113018,"341":-0.004106252147899699,"342":0.10618023839146891,"343":0.06385009142059295,"344":-0.0006893071008696971,"345":-0.08885276824880156,"346":0.0022038740576507494,"347":0.0592090290301091,"348":-0.01668241213076476,"349":-0.0863145646636801,"350":0.07709145927701383,"351":-0.007492070112221067,"352":-0.001065361570484434,"353":0.0877123101856066,"354":-0.08751109331255387,"355":-0.12354653307818879,"356":0.049518579927569716,"357":-0.041176839224916696,"358":0.06343653329760712,"359":-0.023557638776945507,"360":-0.01062375393309802,"361":0.041666935436635306,"362":0.031972277591967996,"363":-0.00045242346765424793,"364":-0.0331624184892017,"365":-0.0006741448666247779,"366":-0.007920743596815062,"367":-0.016892882149134397,"368":-0.013951918298699108,"369":-0.04237177309599592,"370":-0.009974304547404934,"371":0.08074810817736051,"372":0.020284422813913554,"373":0.020659949794239952,"374":-0.029928504459808183,"375":-0.03442007112425406,"376":-0.022268588355968275,"377":-0.05416627228205042,"378":-0.05359940696801069,"379":-0.0020432456950502088,"380":-0.10100912743322253,"381":0.0576391357504043,"382":-0.024902615160978192,"383":-0.054597085520789644,"384":-0.051281968243319806,"385":0.013482020595483818,"386":0.007755930487220382,"387":-0.01303824020301562,"388":-0.062429958659056824,"389":-0.03411534383358566,"390":-0.0016992918304479913,"391":0.03994782551314664,"392":-0.05974746299384078,"393":0.0126574215767104,"394":-0.018191050041011948,"395":0.05256696038251588,"396":0.00014781995655785185,"397":0.0006980127700624343,"398":-0.14145254087782308,"399":-0.05129048072536354}},{"sx":5,"sy":5,"depth":16,"w":{"0":-0.0002755087954609719,"1":-0.021169943992921797,"2":0.04447246616596234,"3":-0.01935051183647086,"4":0.01639450705297175,"5":-0.05572182125461147,"6":0.19480865180374626,"7":0.02649359985923057,"8":0.09206781340029131,"9":-0.06595449581443774,"10":0.07337877626343096,"11":0.058132610117549915,"12":0.05214872141060139,"13":-0.06891204571010265,"14":0.0382414903710748,"15":-0.016675285021807238,"16":-0.02406828455596386,"17":-0.03473670657147894,"18":-0.023043207338950548,"19":-0.04067069314222369,"20":0.050004092056798614,"21":-0.003925897526979684,"22":0.025386062516309333,"23":0.0983741617421782,"24":0.062627937382517,"25":0.03493750284349985,"26":-0.04471925583148311,"27":0.0015740055778007869,"28":-0.10397432248140859,"29":0.02719712408313881,"30":0.06246222318953877,"31":-0.050357666986943016,"32":0.025767941478545258,"33":0.046846872461331346,"34":-0.038735132694929036,"35":0.034826255423034407,"36":0.031734047370184836,"37":-0.0194384901448789,"38":-0.01020735989946014,"39":0.005571349122299452,"40":-0.016904649623722286,"41":0.0276484905455341,"42":-0.04882754737265562,"43":0.01629728560320128,"44":-0.05592223543494616,"45":0.06541879168508154,"46":0.08065926391557994,"47":-0.01045062097583872,"48":-0.007517967139102604,"49":-0.03890253616765328,"50":-0.03941312030206761,"51":0.017985087543550504,"52":-0.005800432269898758,"53":0.08145813009366251,"54":0.09874971900408251,"55":0.061024144680211716,"56":-0.012719777611996342,"57":-0.04418880368032988,"58":-0.07526093453959472,"59":0.02704867309639784,"60":0.06704288318841276,"61":-0.013884858037468296,"62":0.14778295369613736,"63":0.13971038309027292,"64":0.08476972238502874,"65":0.00029609820236002583,"66":0.07247298512682343,"67":0.08311351162767033,"68":0.0017020373278046892,"69":0.047163692374761736,"70":0.03061427175712408,"71":-0.06943945843776479,"72":-0.015618780977118711,"73":0.06916224521725212,"74":0.11003920599545254,"75":0.13019524690021825,"76":-0.05041777400552195,"77":-0.011488907040805955,"78":0.09104903956041369,"79":0.11614881436732351,"80":0.05108724360320179,"81":0.02568813551187869,"82":0.0823259758362414,"83":-0.0010118165913550678,"84":0.037381433271465016,"85":0.005195887254752982,"86":-0.058080826262309225,"87":0.04619387759074821,"88":-0.006240201082687564,"89":0.051632477380589785,"90":0.05215181000174592,"91":0.0020283096415996335,"92":0.006618025924131529,"93":-0.043422548691186245,"94":0.05107607267268412,"95":-0.004611610226796753,"96":0.10146265025462294,"97":0.03970876540206694,"98":0.027105964948607328,"99":-0.025458659728519677,"100":0.014104252028265495,"101":0.10894096267317692,"102":0.016659901063225922,"103":-0.11381192202684161,"104":0.03329774690778362,"105":-0.06271625483745673,"106":0.046486132788275174,"107":0.02504147456213007,"108":0.0532256528141835,"109":0.0628312653833042,"110":-0.08110835324803849,"111":-0.013120640047482073,"112":0.01377009750515948,"113":0.11298376349453768,"114":-0.012004564296448153,"115":0.19112064055602362,"116":0.046652622350788306,"117":0.056001494708177606,"118":0.0038770888513960156,"119":0.08296211697677572,"120":-0.012672509123456108,"121":-0.048110709410439996,"122":0.04039172059321834,"123":-0.04102792110316187,"124":-0.05571552685068391,"125":0.03526001030846546,"126":0.06624948773322147,"127":0.08182380326290636,"128":0.054571075609649675,"129":0.05575395664900934,"130":0.07609959731074654,"131":-0.025934393684119414,"132":-0.04060725398655047,"133":-0.014786694674406206,"134":-0.0036028313254356475,"135":-0.04569037132196652,"136":-0.013112534086861338,"137":0.03182911484345437,"138":-0.02953337678046567,"139":-0.024095699986019098,"140":0.06471391661738156,"141":0.07690685136184172,"142":0.037363877855053435,"143":-0.07828968652445666,"144":-0.01004026182617904,"145":-0.09910731602440857,"146":-0.0875796734117801,"147":0.03659670819349211,"148":0.1477912154066668,"149":-0.03984196385009113,"150":0.0004873784258412078,"151":0.002743023854263277,"152":0.06815301495600234,"153":-0.07080569189929184,"154":0.050280333862798336,"155":-0.03897429291420214,"156":0.014741016260121621,"157":-0.0008812927219759304,"158":-0.08134980218471219,"159":-0.021807002352939208,"160":-0.005380411405258771,"161":-0.020293186794316534,"162":0.032301882657345946,"163":-0.03749050714167693,"164":0.018329720787872004,"165":0.022734619689951184,"166":0.000013084671264210831,"167":0.023081755429934216,"168":0.06508253162038251,"169":-0.0024203500529218777,"170":-0.035740297270048134,"171":-0.04592554879522886,"172":0.06107511327117089,"173":-0.07545669601806837,"174":-0.03850470173460893,"175":0.08322113001168376,"176":0.04079078037579952,"177":-0.11211150510941344,"178":0.042205033855515287,"179":0.037004865946867575,"180":0.05417724672309069,"181":0.04227031708563374,"182":0.030452110747958866,"183":-0.015921477245899054,"184":0.03710185422496785,"185":0.02769742210978106,"186":0.15103882491398948,"187":-0.06795660726244104,"188":-0.09360704848205781,"189":-0.0055172572419315185,"190":0.02550954301367817,"191":0.0001846710195137412,"192":0.06038875339958912,"193":0.0314781653036458,"194":-0.01338831764557298,"195":0.10606692658537459,"196":-0.02070585571672354,"197":0.009558792184512726,"198":-0.029274916777561222,"199":-0.003836014055317099,"200":0.02932142878215505,"201":-0.09882693597915418,"202":0.00585331570984948,"203":0.01596979247752955,"204":0.02602665740782987,"205":0.0014786962307741269,"206":0.07505047209933079,"207":0.01310060849686246,"208":0.029091737426754458,"209":0.037883757715879915,"210":-0.023420215983934522,"211":0.09163087440250807,"212":-0.024186691394907475,"213":0.04447309746108973,"214":0.05448084263610552,"215":0.01310442102124127,"216":-0.026280985937461813,"217":0.013503479471812449,"218":-0.015670202938647765,"219":-0.03431137059839507,"220":0.0768858290946412,"221":0.021995653617206574,"222":0.06414717169962149,"223":0.04304251511533404,"224":0.023603867111423676,"225":0.07924161087829393,"226":0.0024016178117776147,"227":0.025748028277090756,"228":0.07868756144401284,"229":0.03848851295050584,"230":0.02796625566937912,"231":0.04775380695754575,"232":0.12018926805469742,"233":-0.05333445389631552,"234":0.011143884350164212,"235":0.041442029331633955,"236":-0.022595574622844627,"237":-0.04462738026566157,"238":0.029046110608751768,"239":0.01705952041186417,"240":0.016568826625062146,"241":-0.033692277954782766,"242":0.015107964052679619,"243":0.027821573734696067,"244":0.03406427472591687,"245":0.014207709999985503,"246":-0.0841122498329707,"247":0.03295079083219321,"248":0.030285183352121547,"249":0.0018038917445214013,"250":-0.03473660035446636,"251":-0.053621078468890235,"252":0.01971377695728281,"253":0.07394028496010431,"254":-0.024517531569499956,"255":0.011324083338997428,"256":-0.014465981261712816,"257":-0.02732954807913632,"258":-0.016133907261158733,"259":-0.01680937963869371,"260":-0.07162648122601771,"261":0.1132806857096227,"262":-0.013406574816367391,"263":-0.07571797165462629,"264":-0.020439368905858204,"265":0.0170596678616021,"266":0.011651900547770638,"267":0.08759616985543432,"268":-0.06348084436155589,"269":0.05042081718012052,"270":0.05613527491572927,"271":0.004319489293526349,"272":0.053068922034684315,"273":-0.09514939543411624,"274":-0.05529669253314603,"275":-0.026726002787336205,"276":-0.050306940521201333,"277":0.027196781543701982,"278":0.06368843597071111,"279":-0.048182182033002015,"280":-0.007598605565148638,"281":0.056290138482900286,"282":-0.015357453342075765,"283":0.11824214855908192,"284":0.015244600955013414,"285":0.02241204799048761,"286":0.0023858537519667847,"287":-0.11984239571536501,"288":-0.03607079940453325,"289":-0.022652691839292114,"290":-0.01566926681998201,"291":-0.02156780534121448,"292":0.02937874573635241,"293":0.053613558040385374,"294":0.07302275450788547,"295":0.07734275814050727,"296":-0.050060282264004975,"297":-0.03666333417938048,"298":-0.057082485208356,"299":0.010854536383928177,"300":-0.04153139161717481,"301":0.04418054832573337,"302":0.006788702232223487,"303":-0.01546307174441535,"304":0.019064681644814393,"305":-0.0932508579011009,"306":0.01397534537801627,"307":0.11217892483021673,"308":0.055330880917168306,"309":-0.010026821335091493,"310":-0.042566058347847255,"311":-0.012248228284908144,"312":0.0022649567586253763,"313":0.09569933876935655,"314":-0.01664098982439409,"315":-0.015737371954129258,"316":0.01777788037649296,"317":-0.03922550979395094,"318":-0.0491331917497282,"319":-0.056109305333232364,"320":-0.10784132439905073,"321":-0.04697815099211652,"322":0.055190790318607734,"323":-0.06852469474079795,"324":-0.05182871617953811,"325":0.018895200843044697,"326":-0.006076466890750822,"327":-0.08933445199056862,"328":-0.06339926667759906,"329":-0.01961017258725665,"330":0.057231857400715264,"331":-0.08734554823363648,"332":-0.021333129355931464,"333":0.07010529260489431,"334":0.03467373429865721,"335":0.05027656287872078,"336":0.07713263180476695,"337":0.00417941493242404,"338":0.03208504236847391,"339":0.007480351958674621,"340":0.02137239786455588,"341":0.06911451220940815,"342":-0.012543649269963654,"343":0.01588262869850946,"344":0.013628161749961787,"345":-0.06544352267943707,"346":-0.07904511768121184,"347":0.12433646217091096,"348":0.007453696022554798,"349":0.01260835398914774,"350":0.054192938527270286,"351":0.062155057197213745,"352":-0.05513754363759427,"353":0.09605354222577744,"354":0.01710259041090291,"355":-0.01978665455197236,"356":0.0298081876770651,"357":-0.08375907247361787,"358":0.037549697394988694,"359":-0.03404577358279082,"360":-0.026477582722495372,"361":-0.0848281322172285,"362":-0.031118992478861185,"363":-0.025614751546941712,"364":0.027887013951890274,"365":0.12821644975029578,"366":0.014912315331391103,"367":0.03063045427959838,"368":0.053983267082399755,"369":0.08679481300763725,"370":0.02406288502663714,"371":0.0033231236219953427,"372":0.006204811168583079,"373":-0.027407518808324465,"374":0.00764731708552487,"375":-0.05587302659526281,"376":-0.004637760859871068,"377":-0.10818609860650319,"378":0.023787104195914757,"379":-0.0359442614803796,"380":0.07208482505539344,"381":0.004075270822207487,"382":0.05967247601744268,"383":-0.03741231697903055,"384":-0.023335057842127388,"385":-0.03229471643042462,"386":-0.05216962038974722,"387":-0.023923273450531645,"388":-0.006236027291188937,"389":0.03529617333216605,"390":-0.04707886932017,"391":0.01270465691613646,"392":0.05024228769947715,"393":0.03891227867133585,"394":0.03176193412098553,"395":0.08915321206478172,"396":0.05036089921438879,"397":0.018983481826020818,"398":0.06667045504541394,"399":-0.03088608797662862}},{"sx":5,"sy":5,"depth":16,"w":{"0":0.018278239337300096,"1":-0.060056827898207106,"2":0.003886380449914947,"3":0.10156302889930346,"4":0.03719032384388777,"5":-0.014924918305159934,"6":0.06250246264308519,"7":-0.06540099106767411,"8":0.033184689622127,"9":0.08134284103785276,"10":0.05362985666998906,"11":-0.021675520617481087,"12":0.022178112921401042,"13":0.05433577737441201,"14":0.05148406046670265,"15":0.013514504555626652,"16":-0.012035803701980916,"17":-0.020978224914491507,"18":-0.051520759871275905,"19":0.03315486352155928,"20":-0.006393187296322759,"21":-0.09133269448412192,"22":-0.050354565746342166,"23":0.027433610758596984,"24":-0.09463074034129985,"25":0.056422699383451486,"26":0.016369411883960922,"27":0.010663330726360415,"28":-0.01715505436507417,"29":0.0026202524180472184,"30":0.05219391082856667,"31":-0.008713584304953332,"32":0.08175301930030511,"33":0.047417111806258475,"34":-0.03266949785160889,"35":-0.09276301337056624,"36":0.06166324372481682,"37":0.10501697246506705,"38":-0.13946449074622572,"39":0.004128452196416334,"40":-0.04061383643294031,"41":0.008371786768196518,"42":0.0026482595262829296,"43":-0.0029143283085406174,"44":0.018223865818385736,"45":-0.02015138724416165,"46":0.028025679072705884,"47":-0.020304070282990885,"48":-0.01573885953230137,"49":0.06521737855491068,"50":-0.03903673081610972,"51":0.00432668847861865,"52":0.024594400646782793,"53":0.037783385865804923,"54":-0.027001396877141655,"55":-0.019467245651002895,"56":0.07948148441131955,"57":0.034293815739180264,"58":0.03534190342824333,"59":-0.04226705394751852,"60":0.01154557339669969,"61":-0.039947774685041106,"62":0.04641019383613317,"63":0.0012148376854626513,"64":-0.07870066182139288,"65":0.013253820293787492,"66":0.05628238141152799,"67":0.01718737311959106,"68":-0.04817700346898202,"69":0.04859840390621715,"70":0.03532466432224039,"71":0.022576404585678663,"72":0.07080722725255027,"73":-0.03027813752690163,"74":0.07696368526577682,"75":-0.00501200031035653,"76":-0.033638814905311995,"77":0.0173098582866284,"78":-0.05588102647415378,"79":-0.054951925996841205,"80":0.02750413230688837,"81":0.02177808706492457,"82":-0.008991353730393219,"83":-0.044260658326360995,"84":0.013011105631108405,"85":0.021037594900143078,"86":0.014858702148242931,"87":-0.01982762624805197,"88":-0.00043398352964438546,"89":0.0692222451958772,"90":0.09472081601984196,"91":-0.13277447973638284,"92":0.14263297613928239,"93":0.04579911151112118,"94":0.01953451956854505,"95":0.049136746155523534,"96":0.06589993010667877,"97":-0.015476593581542197,"98":-0.019791852661721027,"99":0.03823476154413074,"100":0.06101131236712026,"101":0.037476588188139245,"102":0.06301046974059087,"103":0.0068424123818022495,"104":0.030334415927747556,"105":0.0055058329046658834,"106":0.05911986025588347,"107":0.08184542690843138,"108":-0.049272370524074335,"109":0.03179753880976804,"110":0.004452297318665728,"111":-0.016291522252731106,"112":0.016234487362770188,"113":-0.03621098682043857,"114":-0.016781426431979423,"115":0.008937920982783738,"116":0.034985841307964005,"117":-0.009317410451396162,"118":0.02892470222376027,"119":0.04038779746171557,"120":0.07330321568412246,"121":-0.013314172760907125,"122":-0.03282879558704231,"123":-0.054169271843412525,"124":0.05298495772859584,"125":0.01071569289797046,"126":0.01161567796947057,"127":-0.006238410242564933,"128":0.015338090023913228,"129":-0.031304994982755366,"130":0.031485937904131234,"131":0.015411141001472563,"132":0.007643364192248539,"133":0.0143323604652751,"134":-0.044443843648824734,"135":-0.032177827135919594,"136":-0.06579335503414013,"137":-0.03559990301708087,"138":-0.07153949686115744,"139":0.02156639212448269,"140":-0.003805352736325867,"141":0.01958997991667018,"142":-0.02318688192073093,"143":-0.060247322451199244,"144":-0.0114208800246666,"145":0.010515356962539515,"146":0.03067182540870584,"147":0.034734439822034995,"148":-0.00037468954140544694,"149":-0.026565736245017655,"150":-0.005266862260956414,"151":0.004300530377654462,"152":0.05562757844252852,"153":-0.03977844335612822,"154":0.009499806235958705,"155":0.06921877685493681,"156":0.06604720009993477,"157":-0.011476471523677338,"158":-0.04247616608631202,"159":0.08697402488869341,"160":0.04660979745503526,"161":-0.06246082805803021,"162":0.06624848610516366,"163":0.06574387059702158,"164":-0.04677624267253387,"165":-0.01805628969827741,"166":-0.05410855961075414,"167":0.006718645729968853,"168":-0.05167132527794126,"169":-0.0148191327725337,"170":0.019908883593128958,"171":0.02568332502381104,"172":0.012997986772077686,"173":-0.00248299188693897,"174":0.015276092249370408,"175":0.043142995953995504,"176":0.05612902087108534,"177":0.009874158560245004,"178":0.09819936419103775,"179":-0.0072525639005027245,"180":-0.0007639149706098667,"181":-0.023024784529197297,"182":0.03236847469712416,"183":-0.039371476564514715,"184":0.049765801151374585,"185":-0.05308622911456208,"186":0.05322894570591103,"187":-0.03647484234616371,"188":-0.03665090157886051,"189":-0.03244077970589654,"190":0.03167551076896128,"191":0.06159372781497352,"192":0.04380434677438837,"193":-0.029534491009300196,"194":0.01732694712132811,"195":0.02090889215694687,"196":-0.07806312486172985,"197":0.05162512761738271,"198":0.07337240748371349,"199":0.0601535459058474,"200":0.005187084477934766,"201":-0.05743323563217558,"202":0.0026210582381326667,"203":0.007356383684852561,"204":-0.03933647986191511,"205":0.0062169710497326875,"206":-0.024594946261508443,"207":-0.014289288036871108,"208":0.04492180006773423,"209":-0.03495098343828383,"210":0.009976085310818054,"211":-0.024235738280677644,"212":0.02808864713341305,"213":0.04339521354361326,"214":0.08973436069842822,"215":-0.046330049473904136,"216":0.025090130212382586,"217":-0.0503286706245425,"218":0.07117066579253961,"219":-0.010283116656035467,"220":-0.03919796789229506,"221":0.023671107420302893,"222":-0.010323743174957,"223":-0.04576969459385339,"224":-0.1404338293759753,"225":0.04409000289418964,"226":-0.026980096937416476,"227":-0.038192701006832426,"228":0.0758589008659111,"229":0.15143011982712434,"230":-0.017298392505035363,"231":-0.05018973765031408,"232":0.052804890652047694,"233":0.07923651742196369,"234":-0.056107677220734196,"235":-0.02103137579645326,"236":0.015575657121279457,"237":0.04379317986345374,"238":-0.02127809429462214,"239":-0.0791318731946099,"240":-0.04932335965575298,"241":-0.027660230173505804,"242":0.03960679848665458,"243":-0.0015755207737431754,"244":0.008177686493110245,"245":0.061716211850484,"246":-0.004200031337147515,"247":0.010045697807379702,"248":0.010073896283924527,"249":0.002306408983741903,"250":0.03504187846048457,"251":-0.0858905155328629,"252":-0.030773371918742753,"253":-0.009765567064333801,"254":0.05567996091395816,"255":-0.0432337858966509,"256":0.03256888910269012,"257":0.04962500204779135,"258":-0.07349441521078445,"259":-0.04777453075415096,"260":-0.008446155755897031,"261":-0.015035564891532101,"262":-0.0035129655143468627,"263":0.03397901608979641,"264":-0.004443835837510259,"265":-0.045046496712912804,"266":0.0645396222645467,"267":-0.009451404617799307,"268":-0.008698876349670783,"269":-0.043972909334828135,"270":-0.05393384457244295,"271":0.030942524106105842,"272":0.11180086140396053,"273":0.09854729398097715,"274":0.01270229603544116,"275":0.07087464821001672,"276":-0.09239015157888458,"277":0.03840855719751745,"278":0.03327007902791549,"279":0.11849022750578737,"280":0.06691449316515444,"281":-0.01978940729430526,"282":0.025982800536617896,"283":0.06371165353047169,"284":0.02331180428243917,"285":0.0064536164437409725,"286":0.02470938204720022,"287":-0.11863935143502058,"288":0.045825197858372885,"289":-0.02284839371273286,"290":-0.011447984015074157,"291":0.02308000587747278,"292":-0.045447175442356026,"293":-0.00516069569239338,"294":-0.028435195364018777,"295":-0.04707558280244447,"296":0.002289792487665375,"297":0.0018236593757695516,"298":-0.01960400963081591,"299":-0.024679873547116326,"300":-0.04335206964734974,"301":0.0032289130666777527,"302":-0.08604372372817443,"303":-0.0512459030018345,"304":0.03573718891172523,"305":-0.018506279791492653,"306":0.006286982005485245,"307":0.03697535941457662,"308":-0.015563758668848512,"309":0.02599990327954495,"310":-0.041718891451117554,"311":0.02544159115942213,"312":-0.004073034984620051,"313":-0.08079083498008868,"314":-0.08826590932390511,"315":0.07691230207504898,"316":-0.04459582747755345,"317":0.017880036267575936,"318":0.004919612148731647,"319":-0.027569012766537074,"320":0.006792842445636444,"321":-0.031060211633511626,"322":-0.043606346980114626,"323":-0.09532876660547138,"324":0.04832052057046315,"325":-0.012634442099029175,"326":0.021056506453638373,"327":-0.04349425794873342,"328":-0.1001558576229424,"329":-0.01929519277929343,"330":-0.04395503207992332,"331":0.03781100505113206,"332":-0.054859756393759083,"333":-0.056464080464945866,"334":-0.13522097576127923,"335":0.017128170767589695,"336":0.05738036816446471,"337":-0.05869861368712844,"338":0.04518948211832218,"339":-0.04865274621633296,"340":-0.016145439605747238,"341":0.04842595740749839,"342":0.051757182598165447,"343":0.0302314530901995,"344":0.01647117856352843,"345":0.010693738561564513,"346":-0.04309256980558928,"347":-0.032798628097990716,"348":-0.04003757729665365,"349":-0.0031253471693597633,"350":-0.03852615254369106,"351":-0.0036969045571111055,"352":-0.02413858165735448,"353":0.016674769592308313,"354":0.05154135795035259,"355":0.03111754879319225,"356":-0.03804279128403924,"357":0.06540762873302276,"358":-0.028641779494330763,"359":-0.01179781145780428,"360":-0.029072119918441063,"361":0.06253765634604007,"362":-0.021528388273932164,"363":0.034493681274360095,"364":-0.051212295452797194,"365":-0.06899859293874747,"366":-0.00717578608896487,"367":-0.004333145578355294,"368":-0.07806486909697931,"369":-0.02261890998283602,"370":0.07384601597296074,"371":-0.015177275655116684,"372":0.053071828702379885,"373":-0.00023970091675528743,"374":-0.07461662350968164,"375":-0.05358180148609471,"376":0.037827413440632306,"377":0.09709908567122127,"378":-0.006822473421143581,"379":0.010884096317276276,"380":0.019688340931725685,"381":0.019000109832650065,"382":-0.033929902831620916,"383":-0.01886461677967302,"384":0.0030516004280285018,"385":0.09781663853509899,"386":-0.055440111587419245,"387":0.009175013643625246,"388":0.027707777843490395,"389":-0.012021310911806802,"390":0.041669678509004465,"391":-0.0495149606842492,"392":0.009651448240621741,"393":-0.07059048079973558,"394":0.003789468364130817,"395":0.00162949909462118,"396":-0.02597707482124153,"397":-0.014427470184967567,"398":0.045734962151028506,"399":0.022212863369537688}},{"sx":5,"sy":5,"depth":16,"w":{"0":0.014987941420149127,"1":0.0546385445971027,"2":0.0019769558170522478,"3":0.045299539670766276,"4":0.02836561009239007,"5":0.04994862415424288,"6":0.03852807841627838,"7":0.03934367764308755,"8":-0.036762276080522814,"9":-0.004171956959833494,"10":0.07650811431276718,"11":0.00011371716732959524,"12":-0.021311763637143044,"13":0.06817461001973676,"14":0.002640944807204622,"15":0.020401419407180883,"16":-0.04089481092542732,"17":0.03547018094634578,"18":0.10301995823183846,"19":0.014237278234733988,"20":0.003068354379630155,"21":0.003738179266680404,"22":-0.00046095872137186494,"23":-0.0066519928261822734,"24":0.08695340171244197,"25":0.06693865957507789,"26":-0.028228341855263364,"27":0.028353879921464615,"28":-0.007343378980502022,"29":0.15300473774241932,"30":-0.008980351560769612,"31":0.022050939728859287,"32":-0.030055469570001454,"33":0.04528417620193584,"34":-0.02250153643049113,"35":0.02436824906549782,"36":-0.04603055397496376,"37":0.06587362693723695,"38":-0.02059113347015065,"39":-0.03209085294493018,"40":0.04672789274689012,"41":-0.020771091267194355,"42":-0.03505595217828922,"43":0.027178780888209873,"44":0.026591885805591017,"45":0.027039535927340947,"46":-0.025744339689922825,"47":0.008840668631953475,"48":-0.026527828168125045,"49":-0.009633956044275542,"50":0.00032316690806128003,"51":0.06292226227711555,"52":-0.0380732442506086,"53":0.014169508178871163,"54":0.04135862244560151,"55":0.0422106537073561,"56":-0.01143484366321419,"57":0.010587628720474918,"58":0.027754148284247274,"59":0.05872035912143561,"60":-0.022844644972733367,"61":0.07142916068683368,"62":0.01116744538932021,"63":0.01356302193497265,"64":-0.024263015648703683,"65":0.009569269013307147,"66":0.07196658159849031,"67":-0.07801659458504971,"68":0.03781895907871131,"69":0.03453015509679055,"70":-0.03919979584436341,"71":0.10996669341863805,"72":0.013298532565144554,"73":-0.022138362279071355,"74":-0.05401840616177136,"75":-0.0033822211181701264,"76":0.015043040486648581,"77":0.008641488571790115,"78":0.07073007279370597,"79":0.04718167504449571,"80":0.012003562175822973,"81":0.14492394688711477,"82":-0.04738084861220763,"83":0.025419356299756734,"84":-0.025340301792883133,"85":0.02616796176903073,"86":-0.04198505977175125,"87":-0.02859788290682046,"88":-0.008895881879935605,"89":0.06019942242119756,"90":0.001240709311482606,"91":0.0211918274229928,"92":-0.0038737239938962205,"93":0.024945821570984645,"94":0.01429628403970149,"95":0.01677280830811336,"96":0.03688459326168502,"97":-0.017942716731740554,"98":-0.043842008226009116,"99":-0.00025581541840774454,"100":0.05581572792694483,"101":0.039531261973921226,"102":0.055002962489267206,"103":0.047687803331923906,"104":0.10878222189781184,"105":0.07542921816291899,"106":0.004911125262716045,"107":-0.05898529512277331,"108":-0.041911964174601836,"109":0.005387367368676709,"110":0.07082924988134931,"111":-0.1134197767313244,"112":-0.043108804107732594,"113":0.004123874969551904,"114":-0.02222747266723967,"115":0.0397755688171108,"116":-0.01616632878140521,"117":0.03743121398171227,"118":0.05230129704104409,"119":-0.018470913194689357,"120":-0.09338291028434907,"121":0.03111596485368054,"122":-0.02758604654772553,"123":-0.015364456935575898,"124":0.03840175116899442,"125":0.03380791316940225,"126":-0.08411710942565712,"127":0.00763450843817787,"128":0.004078691088944883,"129":-0.000795458753080314,"130":-0.03525507216653673,"131":0.04778409330587958,"132":-0.03455081875280786,"133":0.022855812768605765,"134":0.00355681055187822,"135":0.029808395650785573,"136":-0.007386812340705749,"137":-0.10121494476220134,"138":0.05932104435403548,"139":0.08035703012476943,"140":0.08161529150029666,"141":-0.08510509071882293,"142":0.01615654796301543,"143":-0.042142773128745904,"144":0.003436023285218261,"145":-0.11153989030736891,"146":-0.020854791153747235,"147":-0.0065778185590990015,"148":0.0136024620824381,"149":0.13946146173739915,"150":0.0037721705868740737,"151":0.014533570708650665,"152":-0.04370218140258358,"153":0.02653244728203839,"154":0.037391419164442184,"155":0.006772014278740506,"156":0.01050110049815238,"157":0.03687019020751969,"158":-0.06933773080672984,"159":-0.03375814063775609,"160":-0.07877412085814398,"161":0.08390350239247855,"162":0.06023422272686867,"163":-0.12611739815869208,"164":0.018168566552104998,"165":-0.015819124215764386,"166":-0.11125779278844052,"167":-0.019313568051019775,"168":0.08247977719665157,"169":-0.0010007279283372767,"170":-0.004102660339976355,"171":-0.029871771563827147,"172":0.019529629697315618,"173":0.007097912459542128,"174":0.048013141390050834,"175":0.04240748332529974,"176":-0.061093608887117824,"177":0.04462551456952514,"178":0.02764562702500097,"179":-0.10618069996967745,"180":-0.059377364532900156,"181":0.045773559879591384,"182":0.05093554106107682,"183":-0.04772858406400056,"184":-0.014516895910378625,"185":-0.017651917895490414,"186":0.02204748622360236,"187":-0.003986678202589665,"188":0.01918949261173438,"189":0.0637544061877125,"190":0.07388222670221528,"191":-0.049112281709096484,"192":0.12738238779222003,"193":-0.03637436493530236,"194":0.01641607784330988,"195":-0.05491269819699697,"196":0.038049888381549025,"197":-0.002621269264671467,"198":-0.04121217346259452,"199":0.08626123198865136,"200":-0.027426032658513743,"201":-0.01192418957746476,"202":-0.03695359102534453,"203":0.11069129224001538,"204":0.04146319012211085,"205":-0.07506459999891513,"206":0.03664750771888947,"207":0.03297084452641119,"208":0.02579453917089502,"209":0.004097765859114459,"210":-0.055310819976683745,"211":0.09004912233853798,"212":-0.025371871431215196,"213":0.0009328290828373476,"214":0.06457104499928203,"215":-0.10211066486221318,"216":0.00013799865895429284,"217":-0.09198706703842814,"218":-0.009621317528785735,"219":0.05540973487090605,"220":0.001638518874247389,"221":-0.01016558031020806,"222":0.053384972615242915,"223":-0.03152960425867033,"224":0.024289768125500457,"225":0.03274439121368676,"226":0.05253315211377513,"227":-0.01987440507643724,"228":0.10927062682106442,"229":-0.04348268831726728,"230":0.015042680480906127,"231":-0.0461710843815733,"232":0.027452194866809283,"233":-0.01252339686718649,"234":0.055116082473191226,"235":-0.04846281782333099,"236":-0.08293035376481586,"237":-0.11437048729942714,"238":-0.030546339770166582,"239":-0.03782095652134509,"240":0.08245433203786826,"241":-0.006788885120903715,"242":0.03310388171704538,"243":-0.04808499449099515,"244":0.05012826195796721,"245":0.08761272925567726,"246":0.07535228697350085,"247":0.03791128830617327,"248":0.11871494131840997,"249":-0.06868222865230807,"250":0.11217118500417182,"251":0.0585197846176046,"252":-0.013465868329825943,"253":-0.029663339879607255,"254":-0.015526679002117526,"255":-0.02658220884560957,"256":0.031121321450436935,"257":-0.06133074401930648,"258":-0.057922316691776256,"259":0.02289955650176899,"260":-0.06713523734537057,"261":0.022257433558133165,"262":0.0393781826001396,"263":0.048070954938361284,"264":0.07918125705665431,"265":0.08823843112895809,"266":-0.030703599105265673,"267":0.06641584797574818,"268":-0.003656584125374438,"269":-0.0018878086327547552,"270":-0.023300062107575424,"271":0.047283428810609866,"272":-0.06881926467773933,"273":-0.04240300813823717,"274":0.042556292058387984,"275":-0.03664351192095046,"276":-0.017870521087052837,"277":0.047623774177632014,"278":-0.023157767227641787,"279":0.03714338593890272,"280":-0.014084513523794313,"281":-0.007846013543256468,"282":-0.0654434137461989,"283":0.032934964696689696,"284":0.08130899496543222,"285":-0.009886618809288587,"286":-0.039420551867852205,"287":0.08388272271182577,"288":0.009203518886230801,"289":0.05597375503523669,"290":-0.022165929333012736,"291":0.03741272154128762,"292":-0.0210509769121467,"293":-0.08111793383058756,"294":-0.017363603307543357,"295":-0.050193970027410675,"296":0.05136031939260235,"297":0.004134820916894705,"298":0.059655364300834304,"299":-0.08828891200396186,"300":-0.014169652484250908,"301":0.02777847227280561,"302":0.013103132477585114,"303":0.03295228682945878,"304":-0.028487294203798787,"305":0.04024269606989642,"306":0.03107024453991897,"307":0.008299240437104508,"308":0.06673331218923152,"309":0.07208252466825261,"310":0.04078355383255595,"311":0.0593597008995987,"312":-0.05750160696126223,"313":-0.018318569131172344,"314":-0.02788069425850732,"315":0.062018423571086397,"316":-0.021843861120322734,"317":-0.009743100821326945,"318":-0.03269038972751488,"319":0.017517870198495485,"320":-0.004552186111269151,"321":-0.022267505093503108,"322":-0.13254025353518897,"323":0.045808410918843745,"324":-0.052640863601151326,"325":-0.02292177074241628,"326":0.06860474042717106,"327":-0.003699032043770059,"328":0.013285695956226673,"329":0.00797336428926993,"330":-0.025208801825428402,"331":-0.049358357766325085,"332":0.1891599091871354,"333":-0.04609705325593622,"334":-0.015477526166181123,"335":0.043554827541552446,"336":-0.052222022018589685,"337":0.019107541462797226,"338":0.027400211815350663,"339":-0.0606498096917374,"340":-0.006296391931634558,"341":0.04412349497244675,"342":0.009306098708922086,"343":0.03964735681092929,"344":0.009305281976889799,"345":0.028485104515066566,"346":-0.09837993887739062,"347":0.026377500506939044,"348":-0.057881395537020805,"349":-0.009003943970656746,"350":0.04956020098612266,"351":-0.043365880679083174,"352":-0.06421374379894874,"353":-0.07981951635217718,"354":-0.020816554497892017,"355":-0.0134720244736587,"356":-0.04635467404443696,"357":-0.00024404026113665353,"358":-0.016904522746262394,"359":0.016099702606223808,"360":-0.06738146064608219,"361":-0.013511305863272484,"362":0.07507393043510703,"363":0.01618859593142344,"364":0.0496412039527721,"365":0.03831360546148299,"366":-0.00017739531875679223,"367":-0.046125775749157064,"368":0.03465852163175313,"369":-0.03662844987701048,"370":-0.02575321463183805,"371":-0.025801046991366153,"372":0.01002194372758273,"373":0.0021520736035733506,"374":-0.018644561827315637,"375":0.031189550965551177,"376":0.04403678312924505,"377":0.02719593889498829,"378":-0.051697742678718725,"379":0.012596219806985033,"380":-0.023921657623175184,"381":-0.028739706894205255,"382":0.0037031892492480406,"383":-0.024168168139705987,"384":0.06692262599826633,"385":-0.02660391638801214,"386":0.025683350071261875,"387":-0.0149991851611423,"388":-0.038255087478833834,"389":-0.03050192706355698,"390":0.0008421231740993377,"391":-0.022494518732773066,"392":0.029986011408210337,"393":0.054583087032169304,"394":-0.13752183020179165,"395":-0.0038132696718793206,"396":-0.07017924467346545,"397":-0.019522255316585642,"398":-0.03760112534164895,"399":0.01631439773444526}},{"sx":5,"sy":5,"depth":16,"w":{"0":0.006592173907428816,"1":-0.018768333833264293,"2":0.1216434452659436,"3":-0.014045467195649048,"4":0.007106426808828697,"5":0.07452710377440276,"6":0.06514037697043473,"7":0.07575934515551387,"8":0.02650570502133492,"9":0.10060140699193534,"10":0.15141411915836783,"11":0.08715336725349196,"12":0.028017066899470117,"13":0.023114560503320298,"14":-0.023347683661297945,"15":-0.04929836424439103,"16":0.11061653125115548,"17":0.0074174620218947565,"18":-0.028130534239891293,"19":0.05771929244601013,"20":0.05494013795414316,"21":-0.057534975804136426,"22":0.11230231639301749,"23":0.046641434393789115,"24":-0.01592683432901433,"25":0.010780322272235994,"26":0.07950216549903162,"27":0.02829639805916938,"28":-0.005103333346669265,"29":0.016721482028431094,"30":0.010790748189647974,"31":-0.007203915747376831,"32":0.08106190385777365,"33":0.007605216173123478,"34":0.07174411129450087,"35":0.04418146621652002,"36":0.032164896776107225,"37":0.024663354006085974,"38":0.009248647285800004,"39":0.08101979441306068,"40":0.05784706002156746,"41":0.04015167048778282,"42":0.06902464084507155,"43":-0.017028396599863587,"44":0.016514881075125436,"45":0.0007761766775237012,"46":0.022115313244967565,"47":0.02319152095587574,"48":0.01186035263121523,"49":-0.0013178527790968979,"50":-0.02051599137873317,"51":0.03976431972847945,"52":-0.05097567572990559,"53":0.021520905434018724,"54":-0.04390300594790439,"55":0.0969047303926976,"56":0.12057295209569685,"57":0.06550953982120367,"58":0.05260965150927338,"59":0.03660946126047998,"60":-0.013859855921870608,"61":0.06125337779568878,"62":0.03249749322212073,"63":0.005134083750943522,"64":-0.06856431207652161,"65":0.02642997114416566,"66":0.00579318388437894,"67":-0.023338096464288506,"68":-0.05932618732311919,"69":-0.07665977790181422,"70":-0.044944256185397276,"71":0.1351810880509437,"72":0.027369340937211016,"73":0.031242782781984516,"74":-0.014722152079958285,"75":0.05818618926488373,"76":-0.09120890576143822,"77":0.06426286919946707,"78":0.036956660720973616,"79":-0.03537578038627575,"80":0.04849528814893286,"81":0.03304828002610278,"82":-0.06738221645071961,"83":-0.046400513018282186,"84":-0.05782256867903781,"85":-0.039557859312019134,"86":0.07361661967911216,"87":0.0737922718915274,"88":0.022765563620174782,"89":-0.050839302253577384,"90":0.1526982811664534,"91":0.03878852643000566,"92":0.1349925187208259,"93":0.02769211620929276,"94":0.0480768942735063,"95":0.10163810902909531,"96":0.04269597695348103,"97":0.06471552911148692,"98":-0.05786868491662181,"99":-0.0013753669904894052,"100":-0.009339234029569835,"101":0.0022902366246957324,"102":0.013232887259515796,"103":0.06207600732881297,"104":-0.018454960432748833,"105":0.029273177265723586,"106":-0.02433415717209193,"107":-0.023381490288323353,"108":-0.009499165487681992,"109":0.05672343941970682,"110":-0.039871350988257795,"111":0.02385698915303883,"112":-0.009251005492996038,"113":0.07831590597569121,"114":0.10674215441470924,"115":0.01326082115885625,"116":0.1339477541796147,"117":0.02367854231349503,"118":0.08390949065810802,"119":-0.036903762677757856,"120":0.05626053153758839,"121":-0.00006049182465640802,"122":0.0865031134846959,"123":0.048433844288454,"124":0.0063486243430919366,"125":-0.0010753803183749162,"126":0.050723123661793525,"127":0.057974029175575884,"128":-0.015868386566081527,"129":-0.02821735512142061,"130":0.0509697894383969,"131":-0.03481714914012072,"132":-0.06342782800521155,"133":-0.057925704532781536,"134":0.054004910797275325,"135":0.12846529284874533,"136":0.060052169159270426,"137":0.06550168824079594,"138":0.04735405506963049,"139":-0.0014908984703330378,"140":0.007435138500841857,"141":0.023773014544837368,"142":0.04802556968091328,"143":0.07660211647562605,"144":0.018535771609833582,"145":0.056486050128734124,"146":0.039165623857206525,"147":-0.010796615306508757,"148":-0.025785269008191676,"149":0.002217044499950911,"150":-0.04382754219882225,"151":0.07550602402049157,"152":0.01911481585596534,"153":0.02708601622691748,"154":-0.028153594391935603,"155":0.11333250854115422,"156":-0.02526263662555055,"157":-0.0019357215803717945,"158":0.05604893992301913,"159":-0.028527560133073376,"160":0.0037845032451227145,"161":0.051789233226794046,"162":-0.00489441165694239,"163":0.09753065503918752,"164":-0.014363691405098295,"165":0.06645253056441568,"166":0.03645214899772135,"167":0.025905949777780976,"168":-0.028407048755753436,"169":0.07621377491486778,"170":-0.00700879857432996,"171":0.002912209965415913,"172":-0.015768183560207504,"173":-0.08419349319927934,"174":-0.013163974956094221,"175":-0.09418482748313006,"176":-0.07002227825975922,"177":-0.06315481886360846,"178":0.05359386808677011,"179":-0.026934292023575487,"180":0.07159114088247935,"181":-0.007368622148691153,"182":-0.010371405754677258,"183":0.07458707668391405,"184":0.10290247790054424,"185":0.05870239889847206,"186":0.043678797741477926,"187":-0.03136886358124458,"188":0.08251910677281316,"189":-0.003499043484692692,"190":0.04149647235965137,"191":-0.005676484878151436,"192":0.023892765479423487,"193":0.028385279655152997,"194":0.08882082627260512,"195":0.0624397307994277,"196":-0.006363744055892858,"197":0.06374655665793398,"198":0.04244036224893326,"199":-0.0032546698814308055,"200":-0.013670672759303342,"201":0.10668639639104599,"202":0.02380309489554802,"203":0.0006893285113401767,"204":0.05136138967951464,"205":0.037286943525007624,"206":-0.006282064822570625,"207":0.013477187317613347,"208":0.009550013641685671,"209":-0.04173189577562829,"210":-0.04896854438153312,"211":-0.006661367868768231,"212":-0.04230023422048359,"213":-0.06692672452257047,"214":0.03062024954162967,"215":-0.08976519774938778,"216":-0.03877657603235268,"217":0.031300984526569035,"218":0.0887379627043243,"219":-0.039656980081413384,"220":0.024540716999051183,"221":-0.1299854616303451,"222":0.005086752886305791,"223":0.01374249987063082,"224":0.027650091890104818,"225":0.04518334686478039,"226":0.041645363169326134,"227":-0.045518265453981736,"228":0.0017889087031799443,"229":-0.020945477153886914,"230":0.028676962348063974,"231":-0.029236342227610887,"232":0.10730353969604571,"233":-0.034472074921477094,"234":0.06265146980626203,"235":-0.09336124549734591,"236":-0.03801034416862817,"237":0.10028605568398627,"238":0.024211221717381864,"239":0.03167551483054631,"240":0.09923265200100558,"241":0.006791833462196586,"242":0.07063208994288948,"243":-0.03530317063279007,"244":-0.004572259640577967,"245":0.006768652672759611,"246":0.07349811150710561,"247":-0.08096632379345192,"248":-0.04563698967140593,"249":0.01102684401965507,"250":0.13942941489529476,"251":0.049772490442416654,"252":0.07286182817903411,"253":0.05003327961990111,"254":-0.052534461301022246,"255":0.03196918257037448,"256":0.05101487258212298,"257":-0.009555371181374252,"258":0.037684430492915574,"259":-0.04687175072201786,"260":0.0044557469515308715,"261":0.11372939941437595,"262":-0.005304470112282007,"263":0.060869928504938386,"264":0.023393343425279614,"265":0.01419560788782384,"266":0.0680106209759484,"267":0.0422516869516823,"268":0.07807783092722113,"269":0.00047032269165356863,"270":-0.023406826541045353,"271":0.13007274950802236,"272":0.14492064116422035,"273":0.018842950259486638,"274":0.0830498206227237,"275":0.10697875566606428,"276":0.12538986863553636,"277":0.058058983631008594,"278":0.052883634969867616,"279":0.08059011599194676,"280":-0.009343221094466172,"281":0.04257857353154767,"282":0.06797490144581851,"283":0.04831544998797932,"284":0.10188849859639666,"285":0.07999799112813481,"286":-0.030093369583831936,"287":0.05898890600914101,"288":0.07748079424415989,"289":0.06763891248618395,"290":0.04512956799291175,"291":-0.010937367647997277,"292":0.03091877118691571,"293":0.027559638898521255,"294":-0.050285116940961126,"295":0.07515625383745193,"296":0.042242303166199466,"297":-0.06213475806305634,"298":0.0004882039345402331,"299":0.008862828838197999,"300":-0.03476404102749912,"301":-0.00034989552750049296,"302":-0.032553412696103144,"303":0.040428477795778024,"304":-0.013178645344370528,"305":-0.07213841790594587,"306":0.02083130785855019,"307":-0.07315957735425375,"308":0.055692033688472795,"309":-0.028547077339351877,"310":0.08286445164215553,"311":-0.010904040094755277,"312":0.025672018932546656,"313":0.04375472488545117,"314":0.0287715666491754,"315":0.007273806581977196,"316":-0.0219101221294849,"317":0.014038551645197309,"318":-0.024157773409556216,"319":-0.0833810827995664,"320":-0.0088102965407135,"321":0.030452416818041637,"322":0.06293247280113663,"323":-0.07652971273264708,"324":0.07248605099076115,"325":-0.08240412536638782,"326":0.011138693741819557,"327":-0.06740095169047011,"328":-0.07786223674617104,"329":0.032039827754917566,"330":0.014834112454161011,"331":-0.10010216685269331,"332":-0.0033987706132152127,"333":0.028478937484948997,"334":0.057585835250457906,"335":-0.049799494173583356,"336":0.029542962031676816,"337":0.029144460063046614,"338":-0.026658427400667657,"339":-0.03534095307276988,"340":0.0579380369129683,"341":-0.04881827861222657,"342":0.05152382068354761,"343":0.0358417802837911,"344":0.10479117073808998,"345":-0.010289195649178632,"346":-0.06131591075891056,"347":-0.040391814542911506,"348":-0.03947288964060866,"349":0.0701996391786115,"350":-0.007883099117606878,"351":-0.04741352641642911,"352":0.05354791944616708,"353":0.04325756903083838,"354":-0.058225268883693844,"355":-0.026179941585028368,"356":-0.05165205806617095,"357":-0.0013094091583011097,"358":-0.046169102181833524,"359":-0.0066599894462719186,"360":-0.006764440400355024,"361":-0.05471381726377453,"362":-0.022174312182801387,"363":0.02008678033673354,"364":0.06305641677098056,"365":-0.005516271543710543,"366":-0.01809340554232893,"367":-0.01347506691840692,"368":-0.001313506240974252,"369":0.00008374649874116141,"370":-0.006459356617900009,"371":0.08636371443668134,"372":-0.0357356084406248,"373":-0.025547182614061806,"374":0.04164692334416219,"375":-0.05367439470225919,"376":-0.04048627244449007,"377":-0.04939398234153498,"378":0.0033835075944836646,"379":0.013741604240998368,"380":0.006417448813906814,"381":-0.010142259521571025,"382":0.059555949420898764,"383":-0.005235284853085259,"384":0.07160382639008298,"385":-0.04306578570970873,"386":0.06354457592284547,"387":-0.016455196465973272,"388":0.015457223782713891,"389":0.05118503091626257,"390":-0.003779033166588318,"391":-0.08242761091186417,"392":0.026214658257684865,"393":0.037775375353310325,"394":0.011628216095339258,"395":0.05513210711227804,"396":0.015597096378125995,"397":-0.06292977577199267,"398":-0.023982082497961906,"399":0.0392386595876994}},{"sx":5,"sy":5,"depth":16,"w":{"0":-0.013551567290351804,"1":-0.005665175563248052,"2":-0.11423775955271469,"3":0.014177642653228038,"4":0.037028450590526306,"5":0.04205734412962849,"6":-0.008370019028105328,"7":0.07348958585674006,"8":-0.05614865224720868,"9":0.046654619944384204,"10":0.05201688881253817,"11":-0.04459537360859995,"12":-0.016404752142610723,"13":-0.08351388863206556,"14":0.03705309580560018,"15":-0.036950029666306665,"16":0.04908791499924795,"17":-0.021543822264637153,"18":-0.0838524232996442,"19":0.04422913058428666,"20":-0.01700090482660982,"21":-0.03836170097881683,"22":0.015243892930578226,"23":0.004214433553025542,"24":-0.0951211881177381,"25":0.14082842351868174,"26":-0.09682640753731439,"27":-0.01571353782450852,"28":-0.1193638991857141,"29":-0.022509432148078726,"30":0.014092880684835505,"31":0.007864723592456678,"32":-0.09835583303324304,"33":0.07380307078847952,"34":-0.015365928902711724,"35":0.09190124983732165,"36":-0.04944566785870382,"37":-0.04848038255177277,"38":-0.04614563823111666,"39":-0.05389485503552335,"40":-0.06965492138409325,"41":0.005235955916990336,"42":-0.006106119522686667,"43":0.017318922945936406,"44":-0.04821872588225003,"45":-0.10990885482261747,"46":-0.09098822773623283,"47":-0.012109283987378185,"48":-0.08576040828940827,"49":0.0672908984191719,"50":0.021976362633224535,"51":-0.03543145945960264,"52":-0.010489065664440569,"53":-0.04102266952862031,"54":0.05789075472880089,"55":-0.14640009488785244,"56":-0.030994959878731455,"57":0.024448988594398313,"58":-0.1164577811273063,"59":-0.06046806534444265,"60":-0.15067853120747124,"61":-0.05199205439001401,"62":-0.051640125770109103,"63":0.025958303000759544,"64":-0.05412337944316162,"65":-0.03151212990318633,"66":0.0298983657246228,"67":0.03496320364178517,"68":-0.08635542687640059,"69":-0.0862434212232817,"70":-0.019161517856635932,"71":0.059091927672600124,"72":-0.06538381412495402,"73":0.02129725149497545,"74":-0.10689011231556209,"75":-0.07256276547449377,"76":0.027039242670642342,"77":-0.0077668630155516396,"78":0.008628012485524698,"79":-0.04916198373048154,"80":-0.12767575938151535,"81":-0.02317836968948962,"82":0.03165596470050862,"83":0.06984711824717411,"84":-0.07813071340922303,"85":-0.0018260525779817743,"86":-0.02847917353036043,"87":-0.12514844647047385,"88":-0.009375295125459862,"89":-0.04580068099953751,"90":-0.010467186960078216,"91":0.05637567422488811,"92":0.01957084370441336,"93":0.0031757062376117874,"94":-0.037627961363710286,"95":-0.0035266942648781493,"96":0.04987248665992693,"97":0.06022843477944026,"98":-0.006843375248871462,"99":0.018035088375314423,"100":-0.059789967237343346,"101":-0.011471192546028996,"102":-0.034865005616450354,"103":-0.11040103762427178,"104":-0.051634046588887705,"105":0.007219627872584899,"106":-0.02471669856241627,"107":0.03577348118422687,"108":-0.062450323507150324,"109":-0.05355381198762447,"110":-0.008930544782680938,"111":-0.08494199507203641,"112":-0.03897536263716288,"113":0.07414197288354675,"114":0.03773228344992332,"115":-0.06011436907527005,"116":0.014016491833188769,"117":0.0045934075228323285,"118":0.040003708700558215,"119":-0.021942689877834303,"120":0.026343778743665364,"121":-0.04671786724942047,"122":-0.021398389372142907,"123":-0.014602888558006457,"124":-0.03036448741335654,"125":-0.09059943563246131,"126":-0.004301447199309165,"127":0.010384632509021356,"128":0.0209451925055455,"129":0.005440817485847753,"130":-0.011683715571924061,"131":-0.08210673599137112,"132":-0.025293075886360806,"133":-0.008043796768356615,"134":0.0013245003886167047,"135":-0.05963956085936828,"136":-0.09926218013025283,"137":-0.017968539919458647,"138":-0.1241446614831584,"139":-0.049539762280966175,"140":-0.04479730083395794,"141":-0.09771480428684975,"142":-0.17037516223507204,"143":-0.04835520269792475,"144":-0.06698649291565176,"145":-0.009403484778588314,"146":-0.09793610611668313,"147":0.0007134694864999161,"148":0.006880003964983434,"149":-0.04518155725111204,"150":-0.01602611431859662,"151":-0.08681577936243547,"152":0.05387764659891331,"153":-0.11445885739993586,"154":0.02330933935647427,"155":-0.12330882812350442,"156":-0.09023635446520778,"157":-0.01381068738610971,"158":-0.08388433224418507,"159":0.03000076687861792,"160":0.07175956969387483,"161":-0.08484387585196282,"162":0.009993336701562543,"163":0.010068683394323838,"164":0.04347703900581949,"165":-0.05021729057180233,"166":-0.0029233468633035964,"167":0.010146073248806791,"168":-0.08357826053176275,"169":-0.021970456082291267,"170":0.027472186665281395,"171":0.05570763732211144,"172":0.04139809213674946,"173":-0.031104650404599008,"174":0.004826176751446142,"175":-0.019569726600984043,"176":-0.009311529586766685,"177":-0.02426226671227673,"178":-0.002608691643241694,"179":-0.04024354168280911,"180":-0.014942458372463047,"181":0.05354876194057623,"182":-0.04755415149713455,"183":-0.01870598705170703,"184":0.0021862004669884303,"185":0.09987181810215806,"186":0.01557073101064396,"187":0.0028654269994353937,"188":0.040819154400967686,"189":-0.02912889134636394,"190":0.018127648296468624,"191":-0.10042138911526455,"192":-0.016859190650279392,"193":-0.0841236950539275,"194":-0.11368181967079427,"195":-0.03230662799382251,"196":0.03455664823663689,"197":0.12102257432594024,"198":-0.025402848951034864,"199":-0.0007947931021642117,"200":-0.007080180635534917,"201":0.03889746127075359,"202":0.013370225780500148,"203":0.002909706579827689,"204":0.04336304731283219,"205":0.016063258920140714,"206":0.06723987847911185,"207":-0.09843854530086331,"208":0.015471642177361992,"209":-0.015148773817697959,"210":-0.0016823649982384823,"211":-0.03167744079768123,"212":0.04870273173230577,"213":-0.012281110523183715,"214":-0.008977112810525878,"215":-0.101550180403194,"216":-0.14551218345529354,"217":0.005015940561657065,"218":0.00002846810812160201,"219":-0.0344487260163527,"220":-0.0199021825000224,"221":-0.07892171706449612,"222":-0.039127533884514495,"223":-0.04671120238512319,"224":0.00791400388771355,"225":-0.005894810886404279,"226":-0.05534018624927717,"227":-0.053341609665600226,"228":-0.053811902983601584,"229":0.019233893298865757,"230":-0.04034748124003383,"231":0.041130935670871366,"232":0.030359720351254338,"233":-0.05059262065313151,"234":-0.07005882152869687,"235":-0.0820075106567851,"236":0.0033596215884537607,"237":0.0016890666593357623,"238":-0.059507591596129054,"239":-0.015285501166816604,"240":-0.00020560706431991245,"241":0.002815579804564175,"242":0.010182513792590626,"243":0.021087867566839717,"244":-0.007616002083002491,"245":-0.04277848535563499,"246":-0.021807216569495243,"247":-0.07546209145957426,"248":-0.10232282501148444,"249":-0.06181541295813005,"250":-0.09470607629665115,"251":-0.027121197166932537,"252":-0.0042658378816802225,"253":-0.06603441129241602,"254":0.011088471951844103,"255":-0.0505388369864167,"256":0.03863900047297773,"257":-0.010841217085600426,"258":-0.006958733194223789,"259":-0.04221928741206721,"260":-0.0226587448921859,"261":0.04485633072216584,"262":-0.020708360351124756,"263":-0.005997622657203847,"264":0.03033364879627856,"265":0.01618714427144566,"266":-0.011141195920481366,"267":0.020577285589886297,"268":-0.03614302460860187,"269":0.045873967765251544,"270":-0.14596181147021364,"271":-0.03928664496020841,"272":-0.03194832789704668,"273":-0.0180496127036831,"274":0.018903544813927285,"275":0.07438925066031239,"276":0.002361162663240506,"277":0.006548873880821611,"278":-0.07609550426853062,"279":-0.034705637723669774,"280":0.08327958787624111,"281":-0.005897556566950752,"282":0.013087039961953466,"283":0.02453240525134657,"284":-0.04319807225898815,"285":-0.01611334011647479,"286":0.10203151920767059,"287":-0.030310135146826078,"288":-0.0635051861213962,"289":-0.026965815533918774,"290":-0.056763590690941036,"291":-0.04510728812530612,"292":-0.0920574810868679,"293":-0.0355933745543571,"294":-0.0695783616239975,"295":-0.04472572659435721,"296":-0.06108643504249523,"297":0.0012076084452370972,"298":0.05041682028090861,"299":0.03863669463589319,"300":-0.03587381640242627,"301":-0.0365325178705155,"302":-0.011263285099910056,"303":-0.026838160836157633,"304":-0.014346087974653275,"305":-0.02834894171057555,"306":-0.051962657066131804,"307":-0.012700899992890808,"308":-0.04231706816000741,"309":-0.009786728474571965,"310":-0.013992444067616377,"311":0.009182049600926731,"312":0.0011041443632293152,"313":-0.09121660924312759,"314":-0.09925567388783989,"315":-0.07967759211404701,"316":-0.041321878258636764,"317":-0.05242516226613849,"318":-0.031183886122335535,"319":0.05830564658208398,"320":-0.022363397836322175,"321":0.008012239308744198,"322":0.010380686607905242,"323":0.056061332486488855,"324":0.008722376320277598,"325":-0.10158392925993248,"326":-0.037152230863227435,"327":-0.060118139916425097,"328":-0.07475254153279634,"329":-0.014371998664385632,"330":-0.0160433675490595,"331":-0.054400773019919926,"332":0.02091625360389639,"333":-0.008488843692931552,"334":-0.05342412091160352,"335":-0.08682946471080139,"336":-0.003915192600917961,"337":-0.06083560318120867,"338":-0.0035788069765945803,"339":-0.112247884978451,"340":0.06413710201485714,"341":0.06328494721421206,"342":-0.03116450031370262,"343":0.034627867188127145,"344":-0.10695412976176039,"345":-0.048017163446631324,"346":0.018156541146038697,"347":-0.015852093395196172,"348":0.001977850305860019,"349":0.04079950096687705,"350":-0.01979278403509335,"351":0.016716484595953346,"352":-0.002722053391461174,"353":0.04010421530655566,"354":-0.07167774407970982,"355":-0.02306297096773924,"356":0.015674734759483548,"357":-0.14714634415237676,"358":0.039853169050793745,"359":-0.011048947453585473,"360":-0.03382338606539732,"361":-0.02082924977059641,"362":0.08517534951715387,"363":-0.036179719528157524,"364":0.023720899500076813,"365":-0.012269913498777854,"366":-0.0426581652982959,"367":-0.06303518419290148,"368":0.01163967101102332,"369":-0.05137138564454578,"370":-0.04664064109364023,"371":-0.03729154405091369,"372":-0.036431428011319864,"373":-0.007350357300224682,"374":-0.1178957918909163,"375":0.014641253460586668,"376":-0.0004885256316856363,"377":-0.09340425119017935,"378":-0.05932050207920169,"379":-0.08156802714360349,"380":0.04951763895632548,"381":-0.019701004766951694,"382":-0.011021636787120946,"383":-0.07970216381576387,"384":-0.04024803081758476,"385":-0.0033626093118431853,"386":0.0680164079393851,"387":-0.025561589615109747,"388":0.07778437276686871,"389":0.05433868495937753,"390":-0.10848978386345706,"391":-0.057593125068533015,"392":-0.007289359544063923,"393":-0.02676529790408538,"394":-0.06073011077728569,"395":-0.048654815688565584,"396":0.020316280452979674,"397":0.00808214551916995,"398":0.013049369355730731,"399":-0.0924843188066927}},{"sx":5,"sy":5,"depth":16,"w":{"0":0.02288728572782332,"1":0.022097332013689738,"2":0.024806081710923817,"3":0.004177964882375967,"4":0.012171587598212219,"5":-0.019642046015961867,"6":0.04200897698167084,"7":-0.006050398898805711,"8":0.04782802679736588,"9":0.009337529835630758,"10":0.013016580206832247,"11":0.041932577771748115,"12":-0.0995340372494799,"13":0.03785537010476424,"14":0.10519822581723136,"15":0.04065367124387917,"16":0.015600771087973371,"17":-0.0456056215808443,"18":0.01283908060159801,"19":0.006222563499348472,"20":-0.016786226289909906,"21":-0.004533848456053528,"22":0.00435791632826123,"23":0.06535935606659941,"24":-0.02348973076012708,"25":0.06128584349304683,"26":0.09087735574610908,"27":0.11610281401179275,"28":0.016354611966265187,"29":0.07552758488931849,"30":-0.002172821774758654,"31":0.012075437420114958,"32":0.04862980228242407,"33":-0.008403921540185749,"34":-0.022183941962735623,"35":0.02091583566956221,"36":0.0036409905836806956,"37":-0.07845504296595311,"38":0.07272044828588081,"39":0.09594360643972048,"40":-0.002449012796907019,"41":-0.06538148022185068,"42":0.019025580434116944,"43":-0.03754267656605538,"44":0.03063076925596901,"45":-0.02488229687782159,"46":-0.020700825475632626,"47":-0.03170367047141956,"48":0.011445081909203037,"49":0.0555490565438933,"50":0.010186622905062307,"51":-0.11242563423695755,"52":-0.06359162143243963,"53":-0.04139869474821903,"54":-0.026321104794487515,"55":0.014577754985433343,"56":0.038048331512761074,"57":-0.06591311086363236,"58":0.06256269035913943,"59":-0.018789500368870247,"60":0.10779249813751307,"61":-0.022536200742941385,"62":0.006986687276464387,"63":-0.044922338611978765,"64":0.09490909950641319,"65":0.0349582581344537,"66":0.06005675541355491,"67":-0.09145533268453042,"68":0.07636353916049311,"69":-0.04013020447057792,"70":-0.005130803581542454,"71":-0.006792310939607842,"72":-0.02018982622225593,"73":-0.0869472765600703,"74":0.0041964296685053385,"75":0.0008692765921684944,"76":0.12264843118739711,"77":-0.0026948804682752226,"78":0.053954966655857944,"79":-0.021474604893006784,"80":-0.11357547714937585,"81":0.06729394146707203,"82":0.022304721192975305,"83":0.03907489781030483,"84":0.08892363300021984,"85":0.029222634584216096,"86":0.08253770759157666,"87":-0.10377092498699435,"88":0.0433965758901642,"89":-0.01729932197761232,"90":-0.017377973506359164,"91":0.09712729944607218,"92":-0.012962354118318167,"93":-0.06383452292445636,"94":0.026731147583023404,"95":-0.005036149932122427,"96":0.07565926203765308,"97":0.04081403315417924,"98":-0.014267445211314452,"99":0.022151467504720822,"100":-0.015373240502371106,"101":-0.09250020039571055,"102":0.036967946785089204,"103":0.11158719389127655,"104":0.04763680776803396,"105":-0.009759677453639645,"106":0.03910884303451442,"107":0.0181667182899267,"108":-0.04380865282490185,"109":-0.031047951425279625,"110":0.010023924484499267,"111":-0.10433492655898126,"112":-0.029901434456176504,"113":0.06371539637590833,"114":0.04899077964132049,"115":-0.004830736299802459,"116":-0.01644818598235059,"117":0.025680499504709922,"118":-0.0026828668498825358,"119":-0.03692613817082931,"120":-0.04391548695074384,"121":-0.044601238127385555,"122":-0.008216658971741432,"123":-0.01057438220659862,"124":-0.06599547666879392,"125":0.055264833028840325,"126":-0.08797270883582792,"127":-0.03762675265281081,"128":-0.058341693504313355,"129":0.02339338463745432,"130":-0.06849859417186029,"131":0.004608494916086757,"132":-0.0036107395619981468,"133":0.009855197587363322,"134":0.040569113088194,"135":0.043911198091944666,"136":0.009023260938482096,"137":0.08694838255718226,"138":0.031564774242820844,"139":0.03273201244964257,"140":0.01091937828988013,"141":-0.049526609470370235,